{"learner":{"attributes":{"scikit_learn":"{\"_estimator_type\": \"regressor\"}"},"feature_names":[],"feature_types":[],"gradient_booster":{"model":{"cats":{"enc":[],"feature_segments":[],"sorted_idx":[]},"gbtree_model_param":{"num_parallel_tree":"1","num_trees":"180"},"iteration_indptr":[0,1,2,3,4,5,6,7,8,9,10,11,12,13,14,15,16,17,18,19,20,21,22,23,24,25,26,27,28,29,30,31,32,33,34,35,36,37,38,39,40,41,42,43,44,45,46,47,48,49,50,51,52,53,54,55,56,57,58,59,60,61,62,63,64,65,66,67,68,69,70,71,72,73,74,75,76,77,78,79,80,81,82,83,84,85,86,87,88,89,90,91,92,93,94,95,96,97,98,99,100,101,102,103,104,105,106,107,108,109,110,111,112,113,114,115,116,117,118,119,120,121,122,123,124,125,126,127,128,129,130,131,132,133,134,135,136,137,138,139,140,141,142,143,144,145,146,147,148,149,150,151,152,153,154,155,156,157,158,159,160,161,162,163,164,165,166,167,168,169,170,171,172,173,174,175,176,177,178,179,180],"tree_info":[0,0,0,0,0,0,0,0,0,0,0,0,0,0,0,0,0,0,0,0,0,0,0,0,0,0,0,0,0,0,0,0,0,0,0,0,0,0,0,0,0,0,0,0,0,0,0,0,0,0,0,0,0,0,0,0,0,0,0,0,0,0,0,0,0,0,0,0,0,0,0,0,0,0,0,0,0,0,0,0,0,0,0,0,0,0,0,0,0,0,0,0,0,0,0,0,0,0,0,0,0,0,0,0,0,0,0,0,0,0,0,0,0,0,0,0,0,0,0,0,0,0,0,0,0,0,0,0,0,0,0,0,0,0,0,0,0,0,0,0,0,0,0,0,0,0,0,0,0,0,0,0,0,0,0,0,0,0,0,0,0,0,0,0,0,0,0,0,0,0,0,0,0,0,0,0,0,0,0,0],"trees":[{"base_weights":[4.108503E-7,-3.2627115E0,2.2721224E0,-4.430381E0,-1.1519912E0,-2.6512566E0,2.8599956E0,-2.8086585E-1,-1.7996858E-1,-1.6284887E-1,-1.0109994E-2,-2.0675698E-1,-2.3414915E-2,-6.749093E-2,1.5469037E-1],"categories":[],"categories_nodes":[],"categories_segments":[],"categories_sizes":[],"default_left":[0,0,0,0,0,0,0,0,0,0,0,0,0,0,0],"id":0,"left_children":[1,3,5,7,9,11,13,-1,-1,-1,-1,-1,-1,-1,-1],"loss_changes":[1.1846422E4,1.611688E3,2.7340337E3,3.9602246E2,4.6917648E2,3.252282E2,8.329595E2,0E0,0E0,0E0,0E0,0E0,0E0,0E0,0E0],"parents":[2147483647,0,0,1,1,2,2,3,3,4,4,5,5,6,6],"right_children":[2,4,6,8,10,12,14,-1,-1,-1,-1,-1,-1,-1,-1],"split_conditions":[-2.2887762E-1,-7.469686E-1,-7.376666E-1,-1.088588E0,-7.376666E-1,-3.9623666E-1,-7.424123E-1,-2.8086585E-1,-1.7996858E-1,-1.6284887E-1,-1.0109994E-2,-2.0675698E-1,-2.3414915E-2,-6.749093E-2,1.5469037E-1],"split_indices":[3,3,0,2,0,2,2,0,0,0,0,0,0,0,0],"split_type":[0,0,0,0,0,0,0,0,0,0,0,0,0,0,0],"sum_hessian":[1.596E3,6.55E2,9.41E2,4.21E2,2.34E2,1E2,8.41E2,1.71E2,2.5E2,7.2E1,1.62E2,5.9E1,4.1E1,4.4E1,7.97E2],"tree_param":{"num_deleted":"0","num_feature":"4","num_nodes":"15","size_leaf_vector":"1"}},{"base_weights":[-4.862306E-4,-3.100542E0,2.1583643E0,-4.209954E0,-1.0951279E0,-2.520973E0,2.717099E0,-2.669042E-1,-1.71006E-1,-1.54818E-1,-9.6076E-3,-1.9659145E-1,-2.227206E-2,3.3502553E-2,1.5871653E-1],"categories":[],"categories_nodes":[],"categories_segments":[],"categories_sizes":[],"default_left":[0,0,0,0,0,0,0,0,0,0,0,0,0,0,0],"id":1,"left_children":[1,3,5,7,9,11,13,-1,-1,-1,-1,-1,-1,-1,-1],"loss_changes":[1.0694705E4,1.4548784E3,2.4697163E3,3.5776025E2,4.2406516E2,2.9400452E2,7.8596484E2,0E0,0E0,0E0,0E0,0E0,0E0,0E0,0E0],"parents":[2147483647,0,0,1,1,2,2,3,3,4,4,5,5,6,6],"right_children":[2,4,6,8,10,12,14,-1,-1,-1,-1,-1,-1,-1,-1],"split_conditions":[-2.2887762E-1,-7.469686E-1,-7.376666E-1,-1.088588E0,-7.376666E-1,-3.9623666E-1,-2.199058E-1,-2.669042E-1,-1.71006E-1,-1.54818E-1,-9.6076E-3,-1.9659145E-1,-2.227206E-2,3.3502553E-2,1.5871653E-1],"split_indices":[3,3,0,2,0,2,1,0,0,0,0,0,0,0,0],"split_type":[0,0,0,0,0,0,0,0,0,0,0,0,0,0,0],"sum_hessian":[1.596E3,6.55E2,9.41E2,4.21E2,2.34E2,1E2,8.41E2,1.71E2,2.5E2,7.2E1,1.62E2,5.9E1,4.1E1,1.54E2,6.87E2],"tree_param":{"num_deleted":"0","num_feature":"4","num_nodes":"15","size_leaf_vector":"1"}},{"base_weights":[-8.5568294E-4,-2.9464333E0,2.050418E0,-4.3406096E0,-1.4868201E0,-1.8167617E0,2.666264E0,-3.0715904E-1,-1.9744597E-1,-1.7975909E-1,-2.3939995E-2,-1.7294382E-1,-3.4643144E-3,3.20999E-2,1.5468459E-1],"categories":[],"categories_nodes":[],"categories_segments":[],"categories_sizes":[],"default_left":[0,0,0,0,0,0,0,0,0,0,0,0,0,0,0],"id":2,"left_children":[1,3,5,7,9,11,13,-1,-1,-1,-1,-1,-1,-1,-1],"loss_changes":[9.655411E3,1.3284785E3,2.2482998E3,2.1226709E2,6.8261584E2,3.7280243E2,7.0144336E2,0E0,0E0,0E0,0E0,0E0,0E0,0E0,0E0],"parents":[2147483647,0,0,1,1,2,2,3,3,4,4,5,5,6,6],"right_children":[2,4,6,8,10,12,14,-1,-1,-1,-1,-1,-1,-1,-1],"split_conditions":[-2.2887762E-1,-7.424123E-1,-5.64776E-1,-1.4332541E0,-7.376666E-1,-3.9623666E-1,-2.199058E-1,-3.0715904E-1,-1.9744597E-1,-1.7975909E-1,-2.3939995E-2,-1.7294382E-1,-3.4643144E-3,3.20999E-2,1.5468459E-1],"split_indices":[3,2,0,1,0,2,1,0,0,0,0,0,0,0,0],"split_type":[0,0,0,0,0,0,0,0,0,0,0,0,0,0,0],"sum_hessian":[1.596E3,6.55E2,9.41E2,3.34E2,3.21E2,1.29E2,8.12E2,5.7E1,2.77E2,1.03E2,2.18E2,6.6E1,6.3E1,1.42E2,6.7E2],"tree_param":{"num_deleted":"0","num_feature":"4","num_nodes":"15","size_leaf_vector":"1"}},{"base_weights":[-1.2500652E-3,-3.0853586E0,1.7702146E0,-4.2414985E0,-1.6427591E0,-1.640806E0,2.372898E0,-2.9206583E-1,-1.9383602E-1,-1.8747212E-1,-2.5602598E-2,-1.5768033E-1,-5.334798E-3,1.8765412E-2,1.4152502E-1],"categories":[],"categories_nodes":[],"categories_segments":[],"categories_sizes":[],"default_left":[0,0,0,0,0,0,0,0,0,0,0,0,0,0,0],"id":3,"left_children":[1,3,5,7,9,11,13,-1,-1,-1,-1,-1,-1,-1,-1],"loss_changes":[8.730494E3,9.653867E2,2.0904958E3,1.6585059E2,6.1979297E2,3.5474637E2,7.878071E2,0E0,0E0,0E0,0E0,0E0,0E0,0E0,0E0],"parents":[2147483647,0,0,1,1,2,2,3,3,4,4,5,5,6,6],"right_children":[2,4,6,8,10,12,14,-1,-1,-1,-1,-1,-1,-1,-1],"split_conditions":[-4.015746E-1,-7.424123E-1,-5.64776E-1,-1.4332541E0,-7.376666E-1,-3.9623666E-1,-2.199058E-1,-2.9206583E-1,-1.9383602E-1,-1.8747212E-1,-2.5602598E-2,-1.5768033E-1,-5.334798E-3,1.8765412E-2,1.4152502E-1],"split_indices":[3,2,0,1,0,2,1,0,0,0,0,0,0,0,0],"split_type":[0,0,0,0,0,0,0,0,0,0,0,0,0,0,0],"sum_hessian":[1.596E3,5.82E2,1.014E3,3.22E2,2.6E2,1.52E2,8.62E2,5.7E1,2.65E2,9E1,1.7E2,7.6E1,7.6E1,1.61E2,7.01E2],"tree_param":{"num_deleted":"0","num_feature":"4","num_nodes":"15","size_leaf_vector":"1"}},{"base_weights":[-1.6270455E-3,-2.6688778E0,1.8558233E0,-3.6514993E0,-8.929839E-1,-2.200382E0,2.340171E0,-2.0304549E-1,-9.252542E-2,-1.2912093E-1,-6.544375E-3,-2.4552274E-1,-6.221497E-2,-7.348649E-2,1.2760413E-1],"categories":[],"categories_nodes":[],"categories_segments":[],"categories_sizes":[],"default_left":[0,0,0,0,0,0,0,0,0,0,0,0,0,0,0],"id":4,"left_children":[1,3,5,7,9,11,13,-1,-1,-1,-1,-1,-1,-1,-1],"loss_changes":[7.9169478E3,1.1414795E3,1.8558162E3,3.0364502E2,3.0222736E2,2.5558633E2,6.835488E2,0E0,0E0,0E0,0E0,0E0,0E0,0E0,0E0],"parents":[2147483647,0,0,1,1,2,2,3,3,4,4,5,5,6,6],"right_children":[2,4,6,8,10,12,14,-1,-1,-1,-1,-1,-1,-1,-1],"split_conditions":[-2.2887762E-1,-7.469686E-1,-7.376666E-1,1.2678644E-1,-7.376666E-1,-1.2563385E0,-7.424123E-1,-2.0304549E-1,-9.252542E-2,-1.2912093E-1,-6.544375E-3,-2.4552274E-1,-6.221497E-2,-7.348649E-2,1.2760413E-1],"split_indices":[3,3,0,0,0,0,2,0,0,0,0,0,0,0,0],"split_type":[0,0,0,0,0,0,0,0,0,0,0,0,0,0,0],"sum_hessian":[1.596E3,6.55E2,9.41E2,4.21E2,2.34E2,1E2,8.41E2,3.42E2,7.9E1,7.2E1,1.62E2,2.5E1,7.5E1,4.4E1,7.97E2],"tree_param":{"num_deleted":"0","num_feature":"4","num_nodes":"15","size_leaf_vector":"1"}},{"base_weights":[-1.9746732E-3,-2.5360913E0,1.7627625E0,-3.4696245E0,-8.4891224E-1,-1.5838109E0,2.2957168E0,-1.929228E-1,-8.795698E-2,-1.0612961E-1,5.513866E-3,-2.3371878E-1,-4.017222E-2,-7.070163E-2,1.2447562E-1],"categories":[],"categories_nodes":[],"categories_segments":[],"categories_sizes":[],"default_left":[0,0,0,0,0,0,0,0,0,0,0,0,0,0,0],"id":5,"left_children":[1,3,5,7,9,11,13,-1,-1,-1,-1,-1,-1,-1,-1],"loss_changes":[7.1463345E3,1.0302793E3,1.6837595E3,2.7388086E2,2.8733368E2,3.0977496E2,5.880127E2,0E0,0E0,0E0,0E0,0E0,0E0,0E0,0E0],"parents":[2147483647,0,0,1,1,2,2,3,3,4,4,5,5,6,6],"right_children":[2,4,6,8,10,12,14,-1,-1,-1,-1,-1,-1,-1,-1],"split_conditions":[-2.2887762E-1,-7.469686E-1,-5.64776E-1,1.2678644E-1,-3.9623666E-1,-1.2563385E0,-7.424123E-1,-1.929228E-1,-8.795698E-2,-1.0612961E-1,5.513866E-3,-2.3371878E-1,-4.017222E-2,-7.070163E-2,1.2447562E-1],"split_indices":[3,3,0,0,2,0,2,0,0,0,0,0,0,0,0],"split_type":[0,0,0,0,0,0,0,0,0,0,0,0,0,0,0],"sum_hessian":[1.596E3,6.55E2,9.41E2,4.21E2,2.34E2,1.29E2,8.12E2,3.42E2,7.9E1,1E2,1.34E2,2.5E1,1.04E2,4E1,7.72E2],"tree_param":{"num_deleted":"0","num_feature":"4","num_nodes":"15","size_leaf_vector":"1"}},{"base_weights":[-2.252605E-3,-2.4098685E0,1.6743909E0,-3.5881307E0,-1.1765524E0,-2.0057275E0,2.1138418E0,-2.596931E-1,-1.6201076E-1,-1.468276E-1,-1.6769066E-2,-2.3005453E-1,-5.457246E-2,-6.657299E-2,1.1527383E-1],"categories":[],"categories_nodes":[],"categories_segments":[],"categories_sizes":[],"default_left":[0,0,0,0,0,0,0,0,0,0,0,0,0,0,0],"id":6,"left_children":[1,3,5,7,9,11,13,-1,-1,-1,-1,-1,-1,-1,-1],"loss_changes":[6.450666E3,9.490574E2,1.5276716E3,1.7032178E2,4.757234E2,2.346395E2,5.589922E2,0E0,0E0,0E0,0E0,0E0,0E0,0E0,0E0],"parents":[2147483647,0,0,1,1,2,2,3,3,4,4,5,5,6,6],"right_children":[2,4,6,8,10,12,14,-1,-1,-1,-1,-1,-1,-1,-1],"split_conditions":[-2.2887762E-1,-7.424123E-1,-7.376666E-1,-1.4332541E0,-7.376666E-1,-1.0865831E0,-7.424123E-1,-2.596931E-1,-1.6201076E-1,-1.468276E-1,-1.6769066E-2,-2.3005453E-1,-5.457246E-2,-6.657299E-2,1.1527383E-1],"split_indices":[3,2,0,1,0,1,2,0,0,0,0,0,0,0,0],"split_type":[0,0,0,0,0,0,0,0,0,0,0,0,0,0,0],"sum_hessian":[1.596E3,6.55E2,9.41E2,3.34E2,3.21E2,1E2,8.41E2,5.7E1,2.77E2,1.03E2,2.18E2,2.5E1,7.5E1,4.4E1,7.97E2],"tree_param":{"num_deleted":"0","num_feature":"4","num_nodes":"15","size_leaf_vector":"1"}},{"base_weights":[-2.6539466E-3,-2.5227888E0,1.4448744E0,-3.5137508E0,-1.2867597E0,-1.1390724E0,2.0413458E0,-2.469323E-1,-1.594925E-1,-1.5424979E-1,-1.611394E-2,-1.3679682E-1,8.362121E-3,3.8823795E-2,1.2557432E-1],"categories":[],"categories_nodes":[],"categories_segments":[],"categories_sizes":[],"default_left":[0,0,0,0,0,0,0,0,0,0,0,0,0,0,0],"id":7,"left_children":[1,3,5,7,9,11,13,-1,-1,-1,-1,-1,-1,-1,-1],"loss_changes":[5.8294478E3,7.095708E2,1.5666946E3,1.3331909E2,4.5167484E2,3.9888495E2,4.886499E2,0E0,0E0,0E0,0E0,0E0,0E0,0E0,0E0],"parents":[2147483647,0,0,1,1,2,2,3,3,4,4,5,5,6,6],"right_children":[2,4,6,8,10,12,14,-1,-1,-1,-1,-1,-1,-1,-1],"split_conditions":[-4.015746E-1,-7.424123E-1,-3.9623666E-1,-1.4332541E0,-7.376666E-1,-3.9188537E-1,2.8921336E-1,-2.469323E-1,-1.594925E-1,-1.5424979E-1,-1.611394E-2,-1.3679682E-1,8.362121E-3,3.8823795E-2,1.2557432E-1],"split_indices":[3,2,2,1,0,0,3,0,0,0,0,0,0,0,0],"split_type":[0,0,0,0,0,0,0,0,0,0,0,0,0,0,0],"sum_hessian":[1.596E3,5.82E2,1.014E3,3.22E2,2.6E2,1.9E2,8.24E2,5.7E1,2.65E2,9E1,1.7E2,8.5E1,1.05E2,2.24E2,6E2],"tree_param":{"num_deleted":"0","num_feature":"4","num_nodes":"15","size_leaf_vector":"1"}},{"base_weights":[-2.8597973E-3,-2.1796405E0,1.513033E0,-3.0098457E0,-6.7952865E-1,-1.4318488E0,1.9820633E0,-1.6786358E-1,-7.4131764E-2,-7.228904E-2,3.0844495E-2,-2.1192598E-1,-3.6161352E-2,1.2950666E-2,1.1731584E-1],"categories":[],"categories_nodes":[],"categories_segments":[],"categories_sizes":[],"default_left":[0,0,0,0,0,0,0,0,0,0,0,0,0,0,0],"id":8,"left_children":[1,3,5,7,9,11,13,-1,-1,-1,-1,-1,-1,-1,-1],"loss_changes":[5.2730244E3,8.1493774E2,1.3039651E3,2.1893237E2,2.34337E2,2.5548746E2,5.0965283E2,0E0,0E0,0E0,0E0,0E0,0E0,0E0,0E0],"parents":[2147483647,0,0,1,1,2,2,3,3,4,4,5,5,6,6],"right_children":[2,4,6,8,10,12,14,-1,-1,-1,-1,-1,-1,-1,-1],"split_conditions":[-2.2887762E-1,-7.469686E-1,-5.64776E-1,1.2678644E-1,1.2676513E-1,-1.2563385E0,-2.199058E-1,-1.6786358E-1,-7.4131764E-2,-7.228904E-2,3.0844495E-2,-2.1192598E-1,-3.6161352E-2,1.2950666E-2,1.1731584E-1],"split_indices":[3,3,0,0,1,0,1,0,0,0,0,0,0,0,0],"split_type":[0,0,0,0,0,0,0,0,0,0,0,0,0,0,0],"sum_hessian":[1.596E3,6.55E2,9.41E2,4.21E2,2.34E2,1.29E2,8.12E2,3.42E2,7.9E1,1.47E2,8.7E1,2.5E1,1.04E2,1.42E2,6.7E2],"tree_param":{"num_deleted":"0","num_feature":"4","num_nodes":"15","size_leaf_vector":"1"}},{"base_weights":[-2.9682498E-3,-2.2898128E0,1.3034817E0,-3.0596995E0,-7.7358836E-1,-5.993365E-1,2.0817792E0,-2.3605494E-1,-1.350581E-1,-9.0638764E-2,2.4101568E-2,-1.01076104E-1,2.0472301E-2,2.8377568E-2,1.18833266E-1],"categories":[],"categories_nodes":[],"categories_segments":[],"categories_sizes":[],"default_left":[0,0,0,0,0,0,0,0,0,0,0,0,0,0,0],"id":9,"left_children":[1,3,5,7,9,11,13,-1,-1,-1,-1,-1,-1,-1,-1],"loss_changes":[4.7742583E3,6.7584644E2,1.5073826E3,2.1658228E2,2.5792404E2,4.2549176E2,3.21042E2,0E0,0E0,0E0,0E0,0E0,0E0,0E0,0E0],"parents":[2147483647,0,0,1,1,2,2,3,3,4,4,5,5,6,6],"right_children":[2,4,6,8,10,12,14,-1,-1,-1,-1,-1,-1,-1,-1],"split_conditions":[-3.9623666E-1,-3.9188537E-1,-5.6180626E-2,-1.4332541E0,-7.424123E-1,-3.9324126E-1,-2.199058E-1,-2.3605494E-1,-1.350581E-1,-9.0638764E-2,2.4101568E-2,-1.01076104E-1,2.0472301E-2,2.8377568E-2,1.18833266E-1],"split_indices":[2,0,3,1,2,1,1,0,0,0,0,0,0,0,0],"split_type":[0,0,0,0,0,0,0,0,0,0,0,0,0,0,0],"sum_hessian":[1.596E3,5.8E2,1.016E3,3.84E2,1.96E2,2.95E2,7.21E2,6.6E1,3.18E2,1.07E2,8.9E1,1.22E2,1.73E2,1.18E2,6.03E2],"tree_param":{"num_deleted":"0","num_feature":"4","num_nodes":"15","size_leaf_vector":"1"}},{"base_weights":[-3.0522929E-3,-2.178202E0,1.2463224E0,-3.0596263E0,-1.0790515E0,-1.0080683E0,1.7667373E0,-1.7717187E-1,-1.1425283E-1,-1.0602235E-1,1.3075329E-2,-1.192354E-1,5.9168953E-3,4.8628006E-2,1.2036306E-1],"categories":[],"categories_nodes":[],"categories_segments":[],"categories_sizes":[],"default_left":[0,0,0,0,0,0,0,0,0,0,0,0,0,0,0],"id":10,"left_children":[1,3,5,7,9,11,13,-1,-1,-1,-1,-1,-1,-1,-1],"loss_changes":[4.3426855E3,5.6151953E2,1.1925979E3,1.129458E2,3.6492383E2,2.9645737E2,4.1732764E2,0E0,0E0,0E0,0E0,0E0,0E0,0E0,0E0],"parents":[2147483647,0,0,1,1,2,2,3,3,4,4,5,5,6,6],"right_children":[2,4,6,8,10,12,14,-1,-1,-1,-1,-1,-1,-1,-1],"split_conditions":[-4.015746E-1,-7.424123E-1,-3.9623666E-1,-1.088588E0,-2.199058E-1,-3.9188537E-1,6.346074E-1,-1.7717187E-1,-1.1425283E-1,-1.0602235E-1,1.3075329E-2,-1.192354E-1,5.9168953E-3,4.8628006E-2,1.2036306E-1],"split_indices":[3,2,2,2,1,0,3,0,0,0,0,0,0,0,0],"split_type":[0,0,0,0,0,0,0,0,0,0,0,0,0,0,0],"sum_hessian":[1.596E3,5.82E2,1.014E3,3.22E2,2.6E2,1.9E2,8.24E2,1.96E2,1.26E2,1.46E2,1.14E2,8.5E1,1.05E2,3.69E2,4.55E2],"tree_param":{"num_deleted":"0","num_feature":"4","num_nodes":"15","size_leaf_vector":"1"}},{"base_weights":[-3.1054998E-3,-2.0636523E0,1.1997342E0,-3.1731138E0,-1.1650224E0,-4.1465154E-1,1.8997374E0,-2.1986464E-1,-1.4216076E-1,-1.0094177E-1,9.773071E-3,-9.767199E-2,1.7650608E-2,5.2579474E-2,1.22867756E-1],"categories":[],"categories_nodes":[],"categories_segments":[],"categories_sizes":[],"default_left":[0,0,0,0,0,0,0,0,0,0,0,0,0,0,0],"id":11,"left_children":[1,3,5,7,9,11,13,-1,-1,-1,-1,-1,-1,-1,-1],"loss_changes":[3.9606526E3,5.8353345E2,1.1410336E3,9.371118E1,3.8023746E2,3.6215878E2,3.303672E2,0E0,0E0,0E0,0E0,0E0,0E0,0E0,0E0],"parents":[2147483647,0,0,1,1,2,2,3,3,4,4,5,5,6,6],"right_children":[2,4,6,8,10,12,14,-1,-1,-1,-1,-1,-1,-1,-1],"split_conditions":[-3.9188537E-1,-9.1550016E-1,-5.6180626E-2,-1.4332541E0,-7.376666E-1,-5.665767E-1,4.6920252E-1,-2.1986464E-1,-1.4216076E-1,-1.0094177E-1,9.773071E-3,-9.767199E-2,1.7650608E-2,5.2579474E-2,1.22867756E-1],"split_indices":[0,2,3,1,0,1,2,0,0,0,0,0,0,0,0],"split_type":[0,0,0,0,0,0,0,0,0,0,0,0,0,0,0],"sum_hessian":[1.596E3,5.88E2,1.008E3,2.62E2,3.26E2,3.05E2,7.03E2,5.3E1,2.09E2,2E2,1.26E2,1.01E2,2.04E2,2.8E2,4.23E2],"tree_param":{"num_deleted":"0","num_feature":"4","num_nodes":"15","size_leaf_vector":"1"}},{"base_weights":[-3.1742624E-3,-2.5177903E0,8.9918214E-1,-2.813347E0,-1.2191182E0,-1.0175103E0,1.5134076E0,-1.5356049E-1,-6.383689E-2,1.6091107E-1,-8.784267E-2,-1.5677084E-1,-2.6114896E-2,5.6570354E-3,9.289652E-2],"categories":[],"categories_nodes":[],"categories_segments":[],"categories_sizes":[],"default_left":[0,0,0,0,0,0,0,0,0,0,0,0,0,0,0],"id":12,"left_children":[1,3,5,7,9,11,13,-1,-1,-1,-1,-1,-1,-1,-1],"loss_changes":[3.6259846E3,1.5854688E2,1.3860227E3,1.319873E2,1.9654305E2,2.9832303E2,4.2962927E2,0E0,0E0,0E0,0E0,0E0,0E0,0E0,0E0],"parents":[2147483647,0,0,1,1,2,2,3,3,4,4,5,5,6,6],"right_children":[2,4,6,8,10,12,14,-1,-1,-1,-1,-1,-1,-1,-1],"split_conditions":[-7.469686E-1,-5.0060995E-2,-3.9188537E-1,1.2678644E-1,1.2302685E-1,-1.088588E0,-2.199058E-1,-1.5356049E-1,-6.383689E-2,1.6091107E-1,-8.784267E-2,-1.5677084E-1,-2.6114896E-2,5.6570354E-3,9.289652E-2],"split_indices":[3,2,0,0,2,2,1,0,0,0,0,0,0,0,0],"split_type":[0,0,0,0,0,0,0,0,0,0,0,0,0,0,0],"sum_hessian":[1.596E3,4.21E2,1.175E3,3.42E2,7.9E1,2.85E2,8.9E2,2.92E2,5E1,8E0,7.1E1,5.3E1,2.32E2,1.76E2,7.14E2],"tree_param":{"num_deleted":"0","num_feature":"4","num_nodes":"15","size_leaf_vector":"1"}},{"base_weights":[-3.1587319E-3,-2.419682E0,8.473293E-1,-3.5073109E0,-1.9823581E0,-1.7067678E0,1.2663125E0,-1.8196052E-1,-2.1932472E-2,-1.24303065E-1,-5.7740755E-2,-1.339322E-1,-4.1245695E-2,1.3796306E-2,9.6933216E-2],"categories":[],"categories_nodes":[],"categories_segments":[],"categories_sizes":[],"default_left":[0,0,0,0,0,0,0,0,0,0,0,0,0,0,0],"id":13,"left_children":[1,3,5,7,9,11,13,-1,-1,-1,-1,-1,-1,-1,-1],"loss_changes":[3.2842437E3,1.9091602E2,1.2670476E3,4.6164795E1,1.2176306E2,1.4091821E2,6.760073E2,0E0,0E0,0E0,0E0,0E0,0E0,0E0,0E0],"parents":[2147483647,0,0,1,1,2,2,3,3,4,4,5,5,6,6],"right_children":[2,4,6,8,10,12,14,-1,-1,-1,-1,-1,-1,-1,-1],"split_conditions":[-7.424123E-1,-1.2599186E0,-7.376666E-1,1.6707894E0,-7.469686E-1,-5.742716E-1,2.8921336E-1,-1.8196052E-1,-2.1932472E-2,-1.24303065E-1,-5.7740755E-2,-1.339322E-1,-4.1245695E-2,1.3796306E-2,9.6933216E-2],"split_indices":[2,1,0,3,3,3,3,0,0,0,0,0,0,0,0],"split_type":[0,0,0,0,0,0,0,0,0,0,0,0,0,0,0],"sum_hessian":[1.596E3,4.15E2,1.181E3,1.17E2,2.98E2,1.66E2,1.015E3,1.12E2,5E0,1.84E2,1.14E2,7.8E1,8.8E1,4.11E2,6.04E2],"tree_param":{"num_deleted":"0","num_feature":"4","num_nodes":"15","size_leaf_vector":"1"}},{"base_weights":[-3.2827808E-3,-1.8102556E0,1.0290226E0,-3.3821054E0,-1.3496734E0,-6.713626E-1,1.6019133E0,-1.4460452E-1,-2.0590441E-1,-1.0132778E-1,-1.6904593E-2,-1.02504015E-1,1.2457447E-2,4.4393055E-2,1.1558806E-1],"categories":[],"categories_nodes":[],"categories_segments":[],"categories_sizes":[],"default_left":[0,0,0,0,0,0,0,0,0,0,0,0,0,0,0],"id":14,"left_children":[1,3,5,7,9,11,13,-1,-1,-1,-1,-1,-1,-1,-1],"loss_changes":[2.9808232E3,4.1605945E2,9.9177075E2,3.533435E1,3.0812415E2,3.2667603E2,3.8367432E2,0E0,0E0,0E0,0E0,0E0,0E0,0E0,0E0],"parents":[2147483647,0,0,1,1,2,2,3,3,4,4,5,5,6,6],"right_children":[2,4,6,8,10,12,14,-1,-1,-1,-1,-1,-1,-1,-1],"split_conditions":[-3.9623666E-1,-1.2599186E0,-2.199058E-1,-1.0923626E0,-3.9188537E-1,-4.015746E-1,6.346074E-1,-1.4460452E-1,-2.0590441E-1,-1.0132778E-1,-1.6904593E-2,-1.02504015E-1,1.2457447E-2,4.4393055E-2,1.1558806E-1],"split_indices":[2,1,1,3,0,3,3,0,0,0,0,0,0,0,0],"split_type":[0,0,0,0,0,0,0,0,0,0,0,0,0,0,0],"sum_hessian":[1.596E3,5.8E2,1.016E3,1.3E2,4.5E2,2.56E2,7.6E2,8.1E1,4.9E1,2.69E2,1.81E2,1.02E2,1.54E2,3.8E2,3.8E2],"tree_param":{"num_deleted":"0","num_feature":"4","num_nodes":"15","size_leaf_vector":"1"}},{"base_weights":[-3.3682806E-3,-2.1903841E0,7.814311E-1,-2.846768E0,-1.7318646E0,-8.9610523E-1,1.3190224E0,-1.463824E-1,2.2007981E-2,-1.2542675E-1,-4.5808677E-2,-1.3819891E-1,-2.2968082E-2,4.0348284E-3,8.1186414E-2],"categories":[],"categories_nodes":[],"categories_segments":[],"categories_sizes":[],"default_left":[0,0,0,0,0,0,0,0,0,0,0,0,0,0,0],"id":15,"left_children":[1,3,5,7,9,11,13,-1,-1,-1,-1,-1,-1,-1,-1],"loss_changes":[2.7427522E3,1.22076904E2,1.0617329E3,4.7014404E1,1.5671613E2,2.3204384E2,3.3606555E2,0E0,0E0,0E0,0E0,0E0,0E0,0E0,0E0],"parents":[2147483647,0,0,1,1,2,2,3,3,4,4,5,5,6,6],"right_children":[2,4,6,8,10,12,14,-1,-1,-1,-1,-1,-1,-1,-1],"split_conditions":[-7.469686E-1,-1.088588E0,-3.9188537E-1,1.6867844E0,-7.376666E-1,-1.088588E0,-2.199058E-1,-1.463824E-1,2.2007981E-2,-1.2542675E-1,-4.5808677E-2,-1.3819891E-1,-2.2968082E-2,4.0348284E-3,8.1186414E-2],"split_indices":[3,2,0,1,0,2,1,0,0,0,0,0,0,0,0],"split_type":[0,0,0,0,0,0,0,0,0,0,0,0,0,0,0],"sum_hessian":[1.596E3,4.21E2,1.175E3,1.71E2,2.5E2,2.85E2,8.9E2,1.67E2,4E0,1.27E2,1.23E2,5.3E1,2.32E2,1.76E2,7.14E2],"tree_param":{"num_deleted":"0","num_feature":"4","num_nodes":"15","size_leaf_vector":"1"}},{"base_weights":[-3.4324632E-3,-1.5001541E0,1.0388741E0,-2.0815654E0,-4.4970444E-1,-2.2683668E0,1.2744621E0,-1.1649778E-1,-4.9528636E-2,-5.030253E-2,2.4553945E-2,-1.431987E-1,-5.140958E-2,2.323712E-3,7.9951786E-2],"categories":[],"categories_nodes":[],"categories_segments":[],"categories_sizes":[],"default_left":[0,0,0,0,0,0,0,0,0,0,0,0,0,0,0],"id":16,"left_children":[1,3,5,7,9,11,13,-1,-1,-1,-1,-1,-1,-1,-1],"loss_changes":[2.4929473E3,3.9971143E2,7.3684625E2,1.1205066E2,1.2349332E2,4.3590668E1,3.5066943E2,0E0,0E0,0E0,0E0,0E0,0E0,0E0,0E0],"parents":[2147483647,0,0,1,1,2,2,3,3,4,4,5,5,6,6],"right_children":[2,4,6,8,10,12,14,-1,-1,-1,-1,-1,-1,-1,-1],"split_conditions":[-2.2887762E-1,-7.469686E-1,-9.1550016E-1,-5.0060995E-2,1.2676513E-1,-2.1899477E-1,-2.199058E-1,-1.1649778E-1,-4.9528636E-2,-5.030253E-2,2.4553945E-2,-1.431987E-1,-5.140958E-2,2.323712E-3,7.9951786E-2],"split_indices":[3,3,2,2,1,0,1,0,0,0,0,0,0,0,0],"split_type":[0,0,0,0,0,0,0,0,0,0,0,0,0,0,0],"sum_hessian":[1.596E3,6.55E2,9.41E2,4.21E2,2.34E2,6.2E1,8.79E2,3.42E2,7.9E1,1.47E2,8.7E1,4.1E1,2.1E1,1.84E2,6.95E2],"tree_param":{"num_deleted":"0","num_feature":"4","num_nodes":"15","size_leaf_vector":"1"}},{"base_weights":[-3.4514605E-3,-1.5774362E0,8.957507E-1,-2.9854276E0,-1.1649655E0,-1.6963692E-1,1.6334727E0,-1.2502813E-1,-1.8604489E-1,-9.643364E-2,-2.4275173E-2,-6.2473506E-2,2.5374725E-2,-1.389294E-2,8.980635E-2],"categories":[],"categories_nodes":[],"categories_segments":[],"categories_sizes":[],"default_left":[0,0,0,0,0,0,0,0,0,0,0,0,0,0,0],"id":17,"left_children":[1,3,5,7,9,11,13,-1,-1,-1,-1,-1,-1,-1,-1],"loss_changes":[2.2616958E3,3.3394092E2,7.9959827E2,3.7410645E1,2.330921E2,3.0553992E2,1.8734155E2,0E0,0E0,0E0,0E0,0E0,0E0,0E0,0E0],"parents":[2147483647,0,0,1,1,2,2,3,3,4,4,5,5,6,6],"right_children":[2,4,6,8,10,12,14,-1,-1,-1,-1,-1,-1,-1,-1],"split_conditions":[-3.9623666E-1,-1.2599186E0,2.8921336E-1,-1.0923626E0,-7.376666E-1,-2.199058E-1,-5.64776E-1,-1.2502813E-1,-1.8604489E-1,-9.643364E-2,-2.4275173E-2,-6.2473506E-2,2.5374725E-2,-1.389294E-2,8.980635E-2],"split_indices":[2,1,3,3,0,1,0,0,0,0,0,0,0,0,0],"split_type":[0,0,0,0,0,0,0,0,0,0,0,0,0,0,0],"sum_hessian":[1.596E3,5.8E2,1.016E3,1.3E2,4.5E2,4.16E2,6E2,8.1E1,4.9E1,2.11E2,2.39E2,1.6E2,2.56E2,4.7E1,5.53E2],"tree_param":{"num_deleted":"0","num_feature":"4","num_nodes":"15","size_leaf_vector":"1"}},{"base_weights":[-3.5250243E-3,-1.9037044E0,6.783451E-1,-2.4891732E0,-1.4949222E0,-7.915672E-1,1.1494074E0,-1.2828277E-1,2.8923346E-2,-1.099661E-1,-3.7787195E-2,-1.2773155E-1,-2.1708356E-2,2.74491E-2,8.311891E-2],"categories":[],"categories_nodes":[],"categories_segments":[],"categories_sizes":[],"default_left":[0,0,0,0,0,0,0,0,0,0,0,0,0,0,0],"id":18,"left_children":[1,3,5,7,9,11,13,-1,-1,-1,-1,-1,-1,-1,-1],"loss_changes":[2.070485E3,9.727588E1,8.1519617E2,4.1838745E1,1.2902777E2,1.7910493E2,2.73516E2,0E0,0E0,0E0,0E0,0E0,0E0,0E0,0E0],"parents":[2147483647,0,0,1,1,2,2,3,3,4,4,5,5,6,6],"right_children":[2,4,6,8,10,12,14,-1,-1,-1,-1,-1,-1,-1,-1],"split_conditions":[-7.469686E-1,-1.088588E0,-3.9188537E-1,1.6867844E0,-7.376666E-1,-1.2563385E0,4.7343606E-1,-1.2828277E-1,2.8923346E-2,-1.099661E-1,-3.7787195E-2,-1.2773155E-1,-2.1708356E-2,2.74491E-2,8.311891E-2],"split_indices":[3,2,0,1,0,0,1,0,0,0,0,0,0,0,0],"split_type":[0,0,0,0,0,0,0,0,0,0,0,0,0,0,0],"sum_hessian":[1.596E3,4.21E2,1.175E3,1.71E2,2.5E2,2.85E2,8.9E2,1.67E2,4E0,1.27E2,1.23E2,4.7E1,2.38E2,4.11E2,4.79E2],"tree_param":{"num_deleted":"0","num_feature":"4","num_nodes":"15","size_leaf_vector":"1"}},{"base_weights":[-3.5275966E-3,-1.8378975E0,6.420743E-1,-3.1398408E0,-1.5878515E0,-1.3426173E0,9.676662E-1,-1.6412877E-1,-3.709833E-2,-9.223132E-2,-4.6700325E-2,-1.04972355E-1,-3.2786947E-2,9.655474E-3,7.467668E-2],"categories":[],"categories_nodes":[],"categories_segments":[],"categories_sizes":[],"default_left":[0,0,0,0,0,0,0,0,0,0,0,0,0,0,0],"id":19,"left_children":[1,3,5,7,9,11,13,-1,-1,-1,-1,-1,-1,-1,-1],"loss_changes":[1.8924635E3,1.3044153E2,7.6510706E2,2.0153564E1,5.720685E1,8.543829E1,4.1354272E2,0E0,0E0,0E0,0E0,0E0,0E0,0E0,0E0],"parents":[2147483647,0,0,1,1,2,2,3,3,4,4,5,5,6,6],"right_children":[2,4,6,8,10,12,14,-1,-1,-1,-1,-1,-1,-1,-1],"split_conditions":[-7.424123E-1,-1.4332541E0,-7.376666E-1,1.2678644E-1,-5.742716E-1,-5.742716E-1,2.8921336E-1,-1.6412877E-1,-3.709833E-2,-9.223132E-2,-4.6700325E-2,-1.04972355E-1,-3.2786947E-2,9.655474E-3,7.467668E-2],"split_indices":[2,1,0,0,3,3,3,0,0,0,0,0,0,0,0],"split_type":[0,0,0,0,0,0,0,0,0,0,0,0,0,0,0],"sum_hessian":[1.596E3,4.15E2,1.181E3,6.5E1,3.5E2,1.66E2,1.015E3,6.1E1,4E0,2.5E2,1E2,7.8E1,8.8E1,4.11E2,6.04E2],"tree_param":{"num_deleted":"0","num_feature":"4","num_nodes":"15","size_leaf_vector":"1"}},{"base_weights":[-3.5974858E-3,-1.2194316E0,8.810079E-1,-1.8991497E0,-5.753763E-1,-1.6946968E0,1.1335613E0,-1.1630415E-1,-7.5044475E-2,-1.2988023E-1,-1.628171E-2,-2.0190986E-2,-1.2483704E-1,3.15631E-2,8.481335E-2],"categories":[],"categories_nodes":[],"categories_segments":[],"categories_sizes":[],"default_left":[0,0,0,0,0,0,0,0,0,0,0,0,0,0,0],"id":20,"left_children":[1,3,5,7,9,11,13,-1,-1,-1,-1,-1,-1,-1,-1],"loss_changes":[1.7187013E3,2.935304E2,6.0363605E2,5.2108887E1,1.7440146E2,8.4925E1,2.3720056E2,0E0,0E0,0E0,0E0,0E0,0E0,0E0,0E0],"parents":[2147483647,0,0,1,1,2,2,3,3,4,4,5,5,6,6],"right_children":[2,4,6,8,10,12,14,-1,-1,-1,-1,-1,-1,-1,-1],"split_conditions":[-2.199058E-1,-7.469686E-1,-7.376666E-1,-1.088588E0,-1.2563385E0,8.20107E-1,6.346074E-1,-1.1630415E-1,-7.5044475E-2,-1.2988023E-1,-1.628171E-2,-2.0190986E-2,-1.2483704E-1,3.15631E-2,8.481335E-2],"split_indices":[1,3,0,2,0,1,3,0,0,0,0,0,0,0,0],"split_type":[0,0,0,0,0,0,0,0,0,0,0,0,0,0,0],"sum_hessian":[1.596E3,6.72E2,9.24E2,3.26E2,3.46E2,8.2E1,8.42E2,1.55E2,1.71E2,3.7E1,3.09E2,3.2E1,5E1,4.46E2,3.96E2],"tree_param":{"num_deleted":"0","num_feature":"4","num_nodes":"15","size_leaf_vector":"1"}},{"base_weights":[-3.6467132E-3,-1.3187832E0,7.4767864E-1,-2.522893E0,-9.661065E-1,-1.6188566E-1,1.37753E0,-1.0174958E-1,-1.636297E-1,-6.450924E-2,9.215533E-3,-5.4500878E-2,2.1009048E-2,4.9563903E-2,1.0257907E-1],"categories":[],"categories_nodes":[],"categories_segments":[],"categories_sizes":[],"default_left":[0,0,0,0,0,0,0,0,0,0,0,0,0,0,0],"id":21,"left_children":[1,3,5,7,9,11,13,-1,-1,-1,-1,-1,-1,-1,-1],"loss_changes":[1.5789744E3,2.4429095E2,5.828525E2,4.1257507E1,1.6838199E2,2.2573584E2,1.5443884E2,0E0,0E0,0E0,0E0,0E0,0E0,0E0,0E0],"parents":[2147483647,0,0,1,1,2,2,3,3,4,4,5,5,6,6],"right_children":[2,4,6,8,10,12,14,-1,-1,-1,-1,-1,-1,-1,-1],"split_conditions":[-3.9623666E-1,-1.2599186E0,2.8921336E-1,-1.0923626E0,4.7256768E-1,-2.199058E-1,9.934425E-1,-1.0174958E-1,-1.636297E-1,-6.450924E-2,9.215533E-3,-5.4500878E-2,2.1009048E-2,4.9563903E-2,1.0257907E-1],"split_indices":[2,1,3,3,0,1,1,0,0,0,0,0,0,0,0],"split_type":[0,0,0,0,0,0,0,0,0,0,0,0,0,0,0],"sum_hessian":[1.596E3,5.8E2,1.016E3,1.3E2,4.5E2,4.16E2,6E2,8.1E1,4.9E1,3.51E2,9.9E1,1.6E2,2.56E2,3.83E2,2.17E2],"tree_param":{"num_deleted":"0","num_feature":"4","num_nodes":"15","size_leaf_vector":"1"}},{"base_weights":[-3.5910297E-3,-1.5872424E0,5.6469506E-1,-1.7803774E0,-7.393359E-1,-7.3409057E-1,9.469942E-1,-1.1905918E-1,-6.6151135E-2,-1.2698491E-1,1.6709875E-2,-1.4793874E-1,-2.2061817E-2,2.0147052E-2,7.432922E-2],"categories":[],"categories_nodes":[],"categories_segments":[],"categories_sizes":[],"default_left":[0,0,0,0,0,0,0,0,0,0,0,0,0,0,0],"id":22,"left_children":[1,3,5,7,9,11,13,-1,-1,-1,-1,-1,-1,-1,-1],"loss_changes":[1.4381438E3,6.779053E1,5.8460803E2,9.109973E1,1.5546867E2,1.732987E2,2.6625232E2,0E0,0E0,0E0,0E0,0E0,0E0,0E0,0E0],"parents":[2147483647,0,0,1,1,2,2,3,3,4,4,5,5,6,6],"right_children":[2,4,6,8,10,12,14,-1,-1,-1,-1,-1,-1,-1,-1],"split_conditions":[-7.469686E-1,1.2678644E-1,-3.9623666E-1,-1.2650596E0,-9.1324764E-1,-1.2599186E0,6.346074E-1,-1.1905918E-1,-6.6151135E-2,-1.2698491E-1,1.6709875E-2,-1.4793874E-1,-2.2061817E-2,2.0147052E-2,7.432922E-2],"split_indices":[3,0,2,3,1,1,3,0,0,0,0,0,0,0,0],"split_type":[0,0,0,0,0,0,0,0,0,0,0,0,0,0,0],"sum_hessian":[1.596E3,4.21E2,1.175E3,3.42E2,7.9E1,2.67E2,9.08E2,1.46E2,1.96E2,2.9E1,5E1,3E1,2.37E2,4.53E2,4.55E2],"tree_param":{"num_deleted":"0","num_feature":"4","num_nodes":"15","size_leaf_vector":"1"}},{"base_weights":[-3.643969E-3,-1.1898195E0,6.887852E-1,-1.9928764E0,-7.8424174E-1,-4.500717E-1,1.0644957E0,-8.019682E-2,-1.654437E-1,-1.16142176E-1,-2.6350264E-2,-1.7229468E-1,-8.788794E-3,2.1516843E-2,7.4478984E-2],"categories":[],"categories_nodes":[],"categories_segments":[],"categories_sizes":[],"default_left":[0,0,0,0,0,0,0,0,0,0,0,0,0,0,0],"id":23,"left_children":[1,3,5,7,9,11,13,-1,-1,-1,-1,-1,-1,-1,-1],"loss_changes":[1.3125034E3,1.9027563E2,4.3221054E2,9.552606E1,1.5431917E2,2.0565138E2,2.039632E2,0E0,0E0,0E0,0E0,0E0,0E0,0E0,0E0],"parents":[2147483647,0,0,1,1,2,2,3,3,4,4,5,5,6,6],"right_children":[2,4,6,8,10,12,14,-1,-1,-1,-1,-1,-1,-1,-1],"split_conditions":[-3.9188537E-1,-1.088588E0,-2.199058E-1,-7.399122E-1,-1.2650596E0,-1.2599186E0,4.6920252E-1,-8.019682E-2,-1.654437E-1,-1.16142176E-1,-2.6350264E-2,-1.7229468E-1,-8.788794E-3,2.1516843E-2,7.4478984E-2],"split_indices":[0,2,1,1,3,1,2,0,0,0,0,0,0,0,0],"split_type":[0,0,0,0,0,0,0,0,0,0,0,0,0,0,0],"sum_hessian":[1.596E3,5.88E2,1.008E3,1.96E2,3.92E2,2.5E2,7.58E2,1.53E2,4.3E1,5.5E1,3.37E2,2E1,2.3E2,3.05E2,4.53E2],"tree_param":{"num_deleted":"0","num_feature":"4","num_nodes":"15","size_leaf_vector":"1"}},{"base_weights":[-3.7580722E-3,-1.0459089E0,7.2199005E-1,-1.4495182E0,-3.1667912E-1,-1.803634E0,9.0198135E-1,-8.1397176E-2,-3.332003E-2,-3.6539037E-2,1.9168157E-2,-2.4747567E-2,-1.08372115E-1,-1.5708037E-1,4.8075143E-2],"categories":[],"categories_nodes":[],"categories_segments":[],"categories_sizes":[],"default_left":[0,0,0,0,0,0,0,0,0,0,0,0,0,0,0],"id":24,"left_children":[1,3,5,7,9,11,13,-1,-1,-1,-1,-1,-1,-1,-1],"loss_changes":[1.2086285E3,1.9261743E2,4.2985098E2,5.7880432E1,6.840398E1,2.892212E1,2.1481958E2,0E0,0E0,0E0,0E0,0E0,0E0,0E0,0E0],"parents":[2147483647,0,0,1,1,2,2,3,3,4,4,5,5,6,6],"right_children":[2,4,6,8,10,12,14,-1,-1,-1,-1,-1,-1,-1,-1],"split_conditions":[-2.2887762E-1,-7.469686E-1,-9.1550016E-1,-5.0060995E-2,1.2676513E-1,1.1651637E-1,-1.2563385E0,-8.1397176E-2,-3.332003E-2,-3.6539037E-2,1.9168157E-2,-2.4747567E-2,-1.08372115E-1,-1.5708037E-1,4.8075143E-2],"split_indices":[3,3,2,2,1,3,0,0,0,0,0,0,0,0,0],"split_type":[0,0,0,0,0,0,0,0,0,0,0,0,0,0,0],"sum_hessian":[1.596E3,6.55E2,9.41E2,4.21E2,2.34E2,6.2E1,8.79E2,3.42E2,7.9E1,1.47E2,8.7E1,1.4E1,4.8E1,1.2E1,8.67E2],"tree_param":{"num_deleted":"0","num_feature":"4","num_nodes":"15","size_leaf_vector":"1"}},{"base_weights":[-3.8042816E-3,-9.800865E-1,7.0651114E-1,-1.3842586E0,-3.3677945E-1,-1.4450822E0,9.175144E-1,-9.0493016E-2,-5.3185582E-2,-7.424896E-2,8.9458255E-3,-5.407395E-2,-1.9956186E-1,2.0241588E-2,6.457286E-2],"categories":[],"categories_nodes":[],"categories_segments":[],"categories_sizes":[],"default_left":[0,0,0,0,0,0,0,0,0,0,0,0,0,0,0],"id":25,"left_children":[1,3,5,7,9,11,13,-1,-1,-1,-1,-1,-1,-1,-1],"loss_changes":[1.1081614E3,1.7451831E2,4.2126962E2,5.4418518E1,1.5480954E2,7.2524124E1,1.610921E2,0E0,0E0,0E0,0E0,0E0,0E0,0E0,0E0],"parents":[2147483647,0,0,1,1,2,2,3,3,4,4,5,5,6,6],"right_children":[2,4,6,8,10,12,14,-1,-1,-1,-1,-1,-1,-1,-1],"split_conditions":[-2.199058E-1,-4.015746E-1,-7.376666E-1,-1.088588E0,-5.693245E-1,1.1526983E0,4.6920252E-1,-9.0493016E-2,-5.3185582E-2,-7.424896E-2,8.9458255E-3,-5.407395E-2,-1.9956186E-1,2.0241588E-2,6.457286E-2],"split_indices":[1,3,0,2,2,3,2,0,0,0,0,0,0,0,0],"split_type":[0,0,0,0,0,0,0,0,0,0,0,0,0,0,0],"sum_hessian":[1.596E3,6.72E2,9.24E2,4.12E2,2.6E2,8.2E1,8.42E2,1.75E2,2.37E2,8E1,1.8E2,7.3E1,9E0,3.56E2,4.86E2],"tree_param":{"num_deleted":"0","num_feature":"4","num_nodes":"15","size_leaf_vector":"1"}},{"base_weights":[-3.8507571E-3,-1.0412129E0,6.017093E-1,-1.9350632E0,-7.608123E-1,-6.993763E-2,1.0946014E0,-7.995751E-2,-1.5322958E-1,-8.273247E-2,-2.1723201E-2,-1.468442E-1,3.1545714E-3,2.7840538E-2,8.5273884E-2],"categories":[],"categories_nodes":[],"categories_segments":[],"categories_sizes":[],"default_left":[0,0,0,0,0,0,0,0,0,0,0,0,0,0,0],"id":26,"left_children":[1,3,5,7,9,11,13,-1,-1,-1,-1,-1,-1,-1,-1],"loss_changes":[1.00383813E3,1.4615247E2,3.3410547E2,4.8218567E1,1.3054709E2,1.63419E2,1.9025104E2,0E0,0E0,0E0,0E0,0E0,0E0,0E0,0E0],"parents":[2147483647,0,0,1,1,2,2,3,3,4,4,5,5,6,6],"right_children":[2,4,6,8,10,12,14,-1,-1,-1,-1,-1,-1,-1,-1],"split_conditions":[-3.9188537E-1,-1.2650596E0,2.8921336E-1,-7.399122E-1,-1.0865831E0,-1.2599186E0,8.153782E-1,-7.995751E-2,-1.5322958E-1,-8.273247E-2,-2.1723201E-2,-1.468442E-1,3.1545714E-3,2.7840538E-2,8.5273884E-2],"split_indices":[0,3,3,1,1,1,2,0,0,0,0,0,0,0,0],"split_type":[0,0,0,0,0,0,0,0,0,0,0,0,0,0,0],"sum_hessian":[1.596E3,5.88E2,1.008E3,1.39E2,4.49E2,4.27E2,5.81E2,1.09E2,3E1,1.19E2,3.3E2,1.8E1,4.09E2,3.1E2,2.71E2],"tree_param":{"num_deleted":"0","num_feature":"4","num_nodes":"15","size_leaf_vector":"1"}},{"base_weights":[-3.888844E-3,-8.9632547E-1,6.4542335E-1,-1.3728163E0,-4.4471505E-1,-1.3354095E0,8.3968633E-1,-8.490491E-2,-5.3490587E-2,-1.0470947E-1,-1.2054344E-2,-5.542185E-3,-1.01323426E-1,2.9504929E-2,7.740729E-2],"categories":[],"categories_nodes":[],"categories_segments":[],"categories_sizes":[],"default_left":[0,0,0,0,0,0,0,0,0,0,0,0,0,0,0],"id":27,"left_children":[1,3,5,7,9,11,13,-1,-1,-1,-1,-1,-1,-1,-1],"loss_changes":[9.2599207E2,1.4421118E2,3.570637E2,3.0413086E1,1.16045296E2,7.0013885E1,1.4814807E2,0E0,0E0,0E0,0E0,0E0,0E0,0E0,0E0],"parents":[2147483647,0,0,1,1,2,2,3,3,4,4,5,5,6,6],"right_children":[2,4,6,8,10,12,14,-1,-1,-1,-1,-1,-1,-1,-1],"split_conditions":[-2.199058E-1,-7.469686E-1,-7.376666E-1,-1.088588E0,-1.2563385E0,6.4677155E-1,1.1526983E0,-8.490491E-2,-5.3490587E-2,-1.0470947E-1,-1.2054344E-2,-5.542185E-3,-1.01323426E-1,2.9504929E-2,7.740729E-2],"split_indices":[1,3,0,2,0,1,3,0,0,0,0,0,0,0,0],"split_type":[0,0,0,0,0,0,0,0,0,0,0,0,0,0,0],"sum_hessian":[1.596E3,6.72E2,9.24E2,3.26E2,3.46E2,8.2E1,8.42E2,1.55E2,1.71E2,3.7E1,3.09E2,3E1,5.2E1,6.24E2,2.18E2],"tree_param":{"num_deleted":"0","num_feature":"4","num_nodes":"15","size_leaf_vector":"1"}},{"base_weights":[-3.8539907E-3,-8.7594974E-1,6.0346943E-1,-1.2126346E0,-2.6762226E-1,-1.6109457E0,7.6131564E-1,-6.8234004E-2,-2.7279085E-2,-1.2769446E-1,-8.263792E-3,-2.0767044E-2,-9.720354E-2,-1.421361E-1,4.07208E-2],"categories":[],"categories_nodes":[],"categories_segments":[],"categories_sizes":[],"default_left":[0,0,0,0,0,0,0,0,0,0,0,0,0,0,0],"id":28,"left_children":[1,3,5,7,9,11,13,-1,-1,-1,-1,-1,-1,-1,-1],"loss_changes":[8.463703E2,1.3403387E2,3.3049033E2,4.2055664E1,5.456584E1,2.4284561E1,1.7072601E2,0E0,0E0,0E0,0E0,0E0,0E0,0E0,0E0],"parents":[2147483647,0,0,1,1,2,2,3,3,4,4,5,5,6,6],"right_children":[2,4,6,8,10,12,14,-1,-1,-1,-1,-1,-1,-1,-1],"split_conditions":[-2.2887762E-1,-7.469686E-1,-9.1550016E-1,-5.0060995E-2,-1.429229E0,1.1651637E-1,-1.2563385E0,-6.8234004E-2,-2.7279085E-2,-1.2769446E-1,-8.263792E-3,-2.0767044E-2,-9.720354E-2,-1.421361E-1,4.07208E-2],"split_indices":[3,3,2,2,0,3,0,0,0,0,0,0,0,0,0],"split_type":[0,0,0,0,0,0,0,0,0,0,0,0,0,0,0],"sum_hessian":[1.596E3,6.55E2,9.41E2,4.21E2,2.34E2,6.2E1,8.79E2,3.42E2,7.9E1,9E0,2.25E2,1.4E1,4.8E1,1.2E1,8.67E2],"tree_param":{"num_deleted":"0","num_feature":"4","num_nodes":"15","size_leaf_vector":"1"}},{"base_weights":[-3.9437264E-3,-8.2287884E-1,5.9189117E-1,-1.1509451E0,-3.0060202E-1,-1.2306249E0,7.706301E-1,-7.5274795E-2,-4.419602E-2,-6.6516265E-2,8.093708E-3,-4.396823E-2,-1.8534443E-1,2.6863793E-2,7.1653835E-2],"categories":[],"categories_nodes":[],"categories_segments":[],"categories_sizes":[],"default_left":[0,0,0,0,0,0,0,0,0,0,0,0,0,0,0],"id":29,"left_children":[1,3,5,7,9,11,13,-1,-1,-1,-1,-1,-1,-1,-1],"loss_changes":[7.7974335E2,1.1496683E2,3.0227136E2,3.776947E1,1.24509415E2,6.893478E1,1.2954498E2,0E0,0E0,0E0,0E0,0E0,0E0,0E0,0E0],"parents":[2147483647,0,0,1,1,2,2,3,3,4,4,5,5,6,6],"right_children":[2,4,6,8,10,12,14,-1,-1,-1,-1,-1,-1,-1,-1],"split_conditions":[-2.199058E-1,-4.015746E-1,-7.376666E-1,-1.088588E0,-5.693245E-1,1.1526983E0,1.1526983E0,-7.5274795E-2,-4.419602E-2,-6.6516265E-2,8.093708E-3,-4.396823E-2,-1.8534443E-1,2.6863793E-2,7.1653835E-2],"split_indices":[1,3,0,2,2,3,3,0,0,0,0,0,0,0,0],"split_type":[0,0,0,0,0,0,0,0,0,0,0,0,0,0,0],"sum_hessian":[1.596E3,6.72E2,9.24E2,4.12E2,2.6E2,8.2E1,8.42E2,1.75E2,2.37E2,8E1,1.8E2,7.3E1,9E0,6.24E2,2.18E2],"tree_param":{"num_deleted":"0","num_feature":"4","num_nodes":"15","size_leaf_vector":"1"}},{"base_weights":[-3.9398437E-3,-7.819992E-1,5.621551E-1,-1.8279825E0,-6.2564045E-1,-1.1718564E0,7.322154E-1,-1.070343E-1,1.3751477E-1,-4.8131652E-2,-7.893341E-3,-1.00108825E-1,-1.1460394E-2,-1.36891445E-2,4.409903E-2],"categories":[],"categories_nodes":[],"categories_segments":[],"categories_sizes":[],"default_left":[0,0,0,0,0,0,0,0,0,0,0,0,0,0,0],"id":30,"left_children":[1,3,5,7,9,11,13,-1,-1,-1,-1,-1,-1,-1,-1],"loss_changes":[7.03847E2,1.0892456E2,2.7362805E2,1.3044046E2,9.238052E1,6.450519E1,1.2725079E2,0E0,0E0,0E0,0E0,0E0,0E0,0E0,0E0],"parents":[2147483647,0,0,1,1,2,2,3,3,4,4,5,5,6,6],"right_children":[2,4,6,8,10,12,14,-1,-1,-1,-1,-1,-1,-1,-1],"split_conditions":[-2.199058E-1,-1.4332541E0,-7.376666E-1,1.5077295E0,-4.015746E-1,-5.742716E-1,-3.9623666E-1,-1.070343E-1,1.3751477E-1,-4.8131652E-2,-7.893341E-3,-1.00108825E-1,-1.1460394E-2,-1.36891445E-2,4.409903E-2],"split_indices":[1,1,0,2,3,3,2,0,0,0,0,0,0,0,0],"split_type":[0,0,0,0,0,0,0,0,0,0,0,0,0,0,0],"sum_hessian":[1.596E3,6.72E2,9.24E2,8.6E1,5.86E2,8.2E1,8.42E2,8.1E1,5E0,3.4E2,2.46E2,4.3E1,3.9E1,1.09E2,7.33E2],"tree_param":{"num_deleted":"0","num_feature":"4","num_nodes":"15","size_leaf_vector":"1"}},{"base_weights":[-3.8095955E-3,-8.343527E-1,4.810206E-1,-1.5790364E0,-6.008192E-1,-2.8119528E0,5.504558E-1,-6.262631E-2,-1.343342E-1,-6.875213E-2,-1.591594E-2,-3.455104E-2,-1.8071288E-1,1.8660495E-3,4.5612E-2],"categories":[],"categories_nodes":[],"categories_segments":[],"categories_sizes":[],"default_left":[0,0,0,0,0,0,0,0,0,0,0,0,0,0,0],"id":31,"left_children":[1,3,5,7,9,11,13,-1,-1,-1,-1,-1,-1,-1,-1],"loss_changes":[6.434691E2,1.0148346E2,2.3225397E2,4.7267E1,9.7985596E1,3.3236786E1,1.8356796E2,0E0,0E0,0E0,0E0,0E0,0E0,0E0,0E0],"parents":[2147483647,0,0,1,1,2,2,3,3,4,4,5,5,6,6],"right_children":[2,4,6,8,10,12,14,-1,-1,-1,-1,-1,-1,-1,-1],"split_conditions":[-3.9188537E-1,-1.2650596E0,-1.2599186E0,-7.399122E-1,-1.0865831E0,-1.4377565E0,2.8921336E-1,-6.262631E-2,-1.343342E-1,-6.875213E-2,-1.591594E-2,-3.455104E-2,-1.8071288E-1,1.8660495E-3,4.5612E-2],"split_indices":[0,3,1,1,1,3,3,0,0,0,0,0,0,0,0],"split_type":[0,0,0,0,0,0,0,0,0,0,0,0,0,0,0],"sum_hessian":[1.596E3,5.88E2,1.008E3,1.39E2,4.49E2,2E1,9.88E2,1.09E2,3E1,1.19E2,3.3E2,6E0,1.4E1,4.09E2,5.79E2],"tree_param":{"num_deleted":"0","num_feature":"4","num_nodes":"15","size_leaf_vector":"1"}},{"base_weights":[-3.9007058E-3,-7.156166E-1,5.139249E-1,-1.6665071E0,-5.734648E-1,-1.0817631E0,6.704234E-1,-9.825485E-2,1.3459863E-1,-4.3851595E-2,-7.602425E-3,-3.6913477E-2,-1.75772E-1,1.2158523E-2,4.9112428E-2],"categories":[],"categories_nodes":[],"categories_segments":[],"categories_sizes":[],"default_left":[0,0,0,0,0,0,0,0,0,0,0,0,0,0,0],"id":32,"left_children":[1,3,5,7,9,11,13,-1,-1,-1,-1,-1,-1,-1,-1],"loss_changes":[5.889337E2,9.001425E1,2.3171873E2,1.185116E2,7.496045E1,6.678872E1,1.1207254E2,0E0,0E0,0E0,0E0,0E0,0E0,0E0,0E0],"parents":[2147483647,0,0,1,1,2,2,3,3,4,4,5,5,6,6],"right_children":[2,4,6,8,10,12,14,-1,-1,-1,-1,-1,-1,-1,-1],"split_conditions":[-2.199058E-1,-1.4332541E0,-7.376666E-1,1.5077295E0,-4.015746E-1,1.1526983E0,4.6920252E-1,-9.825485E-2,1.3459863E-1,-4.3851595E-2,-7.602425E-3,-3.6913477E-2,-1.75772E-1,1.2158523E-2,4.9112428E-2],"split_indices":[1,1,0,2,3,3,2,0,0,0,0,0,0,0,0],"split_type":[0,0,0,0,0,0,0,0,0,0,0,0,0,0,0],"sum_hessian":[1.596E3,6.72E2,9.24E2,8.6E1,5.86E2,8.2E1,8.42E2,8.1E1,5E0,3.4E2,2.46E2,7.3E1,9E0,3.56E2,4.86E2],"tree_param":{"num_deleted":"0","num_feature":"4","num_nodes":"15","size_leaf_vector":"1"}},{"base_weights":[-3.8099012E-3,-6.994678E-1,4.806438E-1,-9.6923685E-1,-2.1205506E-1,-1.4117686E0,6.1557716E-1,-5.4683406E-2,-2.1181105E-2,-1.1213895E-1,-6.063086E-3,-8.7959714E-2,-1.8409688E-2,-1.326326E-1,3.3190805E-2],"categories":[],"categories_nodes":[],"categories_segments":[],"categories_sizes":[],"default_left":[0,0,0,0,0,0,0,0,0,0,0,0,0,0,0],"id":33,"left_children":[1,3,5,7,9,11,13,-1,-1,-1,-1,-1,-1,-1,-1],"loss_changes":[5.385476E2,8.605115E1,2.4140828E2,2.818695E1,4.305645E1,2.219384E1,1.4049808E2,0E0,0E0,0E0,0E0,0E0,0E0,0E0,0E0],"parents":[2147483647,0,0,1,1,2,2,3,3,4,4,5,5,6,6],"right_children":[2,4,6,8,10,12,14,-1,-1,-1,-1,-1,-1,-1,-1],"split_conditions":[-2.2887762E-1,-7.469686E-1,-9.1550016E-1,-5.0060995E-2,-1.429229E0,1.2676513E-1,-1.2563385E0,-5.4683406E-2,-2.1181105E-2,-1.1213895E-1,-6.063086E-3,-8.7959714E-2,-1.8409688E-2,-1.326326E-1,3.3190805E-2],"split_indices":[3,3,2,2,0,1,0,0,0,0,0,0,0,0,0],"split_type":[0,0,0,0,0,0,0,0,0,0,0,0,0,0,0],"sum_hessian":[1.596E3,6.55E2,9.41E2,4.21E2,2.34E2,6.2E1,8.79E2,3.42E2,7.9E1,9E0,2.25E2,4.6E1,1.6E1,1.2E1,8.67E2],"tree_param":{"num_deleted":"0","num_feature":"4","num_nodes":"15","size_leaf_vector":"1"}},{"base_weights":[-3.8697736E-3,-6.5521044E-1,4.7002876E-1,-1.5328344E0,-5.240205E-1,-1.607558E-2,9.207215E-1,-9.086742E-2,1.305497E-1,-3.965865E-2,-7.515799E-3,-2.0922439E-1,2.9961497E-3,1.8577261E-3,6.367624E-2],"categories":[],"categories_nodes":[],"categories_segments":[],"categories_sizes":[],"default_left":[0,0,0,0,0,0,0,0,0,0,0,0,0,0,0],"id":34,"left_children":[1,3,5,7,9,11,13,-1,-1,-1,-1,-1,-1,-1,-1],"loss_changes":[4.93253E2,7.668292E1,2.0266724E2,1.07316055E2,5.892328E1,1.4154059E2,1.4958081E2,0E0,0E0,0E0,0E0,0E0,0E0,0E0,0E0],"parents":[2147483647,0,0,1,1,2,2,3,3,4,4,5,5,6,6],"right_children":[2,4,6,8,10,12,14,-1,-1,-1,-1,-1,-1,-1,-1],"split_conditions":[-2.199058E-1,-1.4332541E0,4.7256768E-1,1.5077295E0,-4.015746E-1,-1.4347637E0,4.7343606E-1,-9.086742E-2,1.305497E-1,-3.965865E-2,-7.515799E-3,-2.0922439E-1,2.9961497E-3,1.8577261E-3,6.367624E-2],"split_indices":[1,1,0,2,3,2,1,0,0,0,0,0,0,0,0],"split_type":[0,0,0,0,0,0,0,0,0,0,0,0,0,0,0],"sum_hessian":[1.596E3,6.72E2,9.24E2,8.6E1,5.86E2,4.45E2,4.79E2,8.1E1,5E0,3.4E2,2.46E2,7E0,4.38E2,1.37E2,3.42E2],"tree_param":{"num_deleted":"0","num_feature":"4","num_nodes":"15","size_leaf_vector":"1"}},{"base_weights":[-3.7690564E-3,-7.009827E-1,4.0323055E-1,-1.6399347E0,-5.649683E-1,-2.526802E0,4.6503788E-1,-9.0412684E-2,2.6618382E-1,-5.721302E-2,-1.6444137E-2,-2.436952E-2,-1.6550371E-1,9.81387E-3,5.2379232E-2],"categories":[],"categories_nodes":[],"categories_segments":[],"categories_sizes":[],"default_left":[0,0,0,0,0,0,0,0,0,0,0,0,0,0,0],"id":35,"left_children":[1,3,5,7,9,11,13,-1,-1,-1,-1,-1,-1,-1,-1],"loss_changes":[4.534565E2,7.429526E1,1.8390245E2,9.636253E1,7.0193115E1,3.1932388E1,1.546377E2,0E0,0E0,0E0,0E0,0E0,0E0,0E0,0E0],"parents":[2147483647,0,0,1,1,2,2,3,3,4,4,5,5,6,6],"right_children":[2,4,6,8,10,12,14,-1,-1,-1,-1,-1,-1,-1,-1],"split_conditions":[-3.9188537E-1,-1.4377565E0,-1.2599186E0,1.5077295E0,-1.088588E0,-1.4377565E0,9.8000133E-1,-9.0412684E-2,2.6618382E-1,-5.721302E-2,-1.6444137E-2,-2.436952E-2,-1.6550371E-1,9.81387E-3,5.2379232E-2],"split_indices":[0,3,1,2,2,3,3,0,0,0,0,0,0,0,0],"split_type":[0,0,0,0,0,0,0,0,0,0,0,0,0,0,0],"sum_hessian":[1.596E3,5.88E2,1.008E3,7.3E1,5.15E2,2E1,9.88E2,7.2E1,1E0,1.48E2,3.67E2,6E0,1.4E1,6.77E2,3.11E2],"tree_param":{"num_deleted":"0","num_feature":"4","num_nodes":"15","size_leaf_vector":"1"}},{"base_weights":[-3.596831E-3,-6.0010725E-1,4.304087E-1,-1.3957272E0,-4.811651E-1,-9.638826E-1,5.671771E-1,-8.3073825E-2,1.2344005E-1,-3.6165696E-2,-7.2457218E-3,-3.172633E-2,-1.6523644E-1,1.8437536E-2,5.654363E-2],"categories":[],"categories_nodes":[],"categories_segments":[],"categories_sizes":[],"default_left":[0,0,0,0,0,0,0,0,0,0,0,0,0,0,0],"id":36,"left_children":[1,3,5,7,9,11,13,-1,-1,-1,-1,-1,-1,-1,-1],"loss_changes":[4.1370374E2,6.301625E1,1.7693953E2,9.34505E1,4.7690308E1,6.1893723E1,9.387433E1,0E0,0E0,0E0,0E0,0E0,0E0,0E0,0E0],"parents":[2147483647,0,0,1,1,2,2,3,3,4,4,5,5,6,6],"right_children":[2,4,6,8,10,12,14,-1,-1,-1,-1,-1,-1,-1,-1],"split_conditions":[-2.199058E-1,-1.4332541E0,-7.376666E-1,1.5077295E0,-4.015746E-1,1.1526983E0,1.1526983E0,-8.3073825E-2,1.2344005E-1,-3.6165696E-2,-7.2457218E-3,-3.172633E-2,-1.6523644E-1,1.8437536E-2,5.654363E-2],"split_indices":[1,1,0,2,3,3,3,0,0,0,0,0,0,0,0],"split_type":[0,0,0,0,0,0,0,0,0,0,0,0,0,0,0],"sum_hessian":[1.596E3,6.72E2,9.24E2,8.6E1,5.86E2,8.2E1,8.42E2,8.1E1,5E0,3.4E2,2.46E2,7.3E1,9E0,6.24E2,2.18E2],"tree_param":{"num_deleted":"0","num_feature":"4","num_nodes":"15","size_leaf_vector":"1"}},{"base_weights":[-3.495169E-3,-5.874487E-1,4.0316835E-1,-8.145259E-1,-1.7717637E-1,-1.283188E0,5.23438E-1,-4.4770624E-2,-9.74106E-3,-1.0110497E-1,-4.7379322E-3,-8.036423E-2,-1.5583721E-2,-1.253848E-1,2.8411606E-2],"categories":[],"categories_nodes":[],"categories_segments":[],"categories_sizes":[],"default_left":[0,0,0,0,0,0,0,0,0,0,0,0,0,0,0],"id":37,"left_children":[1,3,5,7,9,11,13,-1,-1,-1,-1,-1,-1,-1,-1],"loss_changes":[3.7948062E2,6.0970932E1,1.9172571E2,2.0978638E1,3.554116E1,1.9335495E1,1.2090871E2,0E0,0E0,0E0,0E0,0E0,0E0,0E0,0E0],"parents":[2147483647,0,0,1,1,2,2,3,3,4,4,5,5,6,6],"right_children":[2,4,6,8,10,12,14,-1,-1,-1,-1,-1,-1,-1,-1],"split_conditions":[-2.2887762E-1,-7.469686E-1,-9.1550016E-1,9.912395E-1,-1.429229E0,1.2676513E-1,-1.2563385E0,-4.4770624E-2,-9.74106E-3,-1.0110497E-1,-4.7379322E-3,-8.036423E-2,-1.5583721E-2,-1.253848E-1,2.8411606E-2],"split_indices":[3,3,2,0,0,1,0,0,0,0,0,0,0,0,0],"split_type":[0,0,0,0,0,0,0,0,0,0,0,0,0,0,0],"sum_hessian":[1.596E3,6.55E2,9.41E2,4.21E2,2.34E2,6.2E1,8.79E2,3.72E2,4.9E1,9E0,2.25E2,4.6E1,1.6E1,1.2E1,8.67E2],"tree_param":{"num_deleted":"0","num_feature":"4","num_nodes":"15","size_leaf_vector":"1"}},{"base_weights":[-3.5417555E-3,-5.489904E-1,3.933128E-1,-1.2828875E0,-4.3928337E-1,-4.1969623E-2,7.9694337E-1,-7.68483E-2,1.20166734E-1,-2.9332874E-2,2.9136194E-4,8.739032E-3,-6.462869E-2,2.5710285E-2,9.009118E-2],"categories":[],"categories_nodes":[],"categories_segments":[],"categories_sizes":[],"default_left":[0,0,0,0,0,0,0,0,0,0,0,0,0,0,0],"id":38,"left_children":[1,3,5,7,9,11,13,-1,-1,-1,-1,-1,-1,-1,-1],"loss_changes":[3.4590863E2,5.362213E1,1.6254973E2,8.5177185E1,3.8509308E1,1.211226E2,1.3544986E2,0E0,0E0,0E0,0E0,0E0,0E0,0E0,0E0],"parents":[2147483647,0,0,1,1,2,2,3,3,4,4,5,5,6,6],"right_children":[2,4,6,8,10,12,14,-1,-1,-1,-1,-1,-1,-1,-1],"split_conditions":[-2.199058E-1,-1.4332541E0,4.7256768E-1,1.5077295E0,2.8921336E-1,1.3346417E0,1.3346417E0,-7.68483E-2,1.20166734E-1,-2.9332874E-2,2.9136194E-4,8.739032E-3,-6.462869E-2,2.5710285E-2,9.009118E-2],"split_indices":[1,1,0,2,3,2,2,0,0,0,0,0,0,0,0],"split_type":[0,0,0,0,0,0,0,0,0,0,0,0,0,0,0],"sum_hessian":[1.596E3,6.72E2,9.24E2,8.6E1,5.86E2,4.45E2,4.79E2,8.1E1,5E0,4.4E2,1.46E2,3.8E2,6.5E1,3.75E2,1.04E2],"tree_param":{"num_deleted":"0","num_feature":"4","num_nodes":"15","size_leaf_vector":"1"}},{"base_weights":[-3.3182846E-3,-7.596181E-1,2.628611E-1,-1.4067012E0,-6.357802E-1,-6.985725E-1,4.2063332E-1,-3.67277E-2,-9.905222E-2,-1.7041534E-2,-5.262307E-2,-1.7206794E-2,-9.893844E-2,8.242495E-3,4.17969E-2],"categories":[],"categories_nodes":[],"categories_segments":[],"categories_sizes":[],"default_left":[0,0,0,0,0,0,0,0,0,0,0,0,0,0,0],"id":39,"left_children":[1,3,5,7,9,11,13,-1,-1,-1,-1,-1,-1,-1,-1],"loss_changes":[3.2169403E2,3.244113E1,1.7958846E2,2.4023682E1,4.277916E1,7.509502E1,1.0778992E2,0E0,0E0,0E0,0E0,0E0,0E0,0E0,0E0],"parents":[2147483647,0,0,1,1,2,2,3,3,4,4,5,5,6,6],"right_children":[2,4,6,8,10,12,14,-1,-1,-1,-1,-1,-1,-1,-1],"split_conditions":[-7.424123E-1,-1.4332541E0,-7.376666E-1,-1.4377565E0,-7.399122E-1,1.3346417E0,8.073043E-1,-3.67277E-2,-9.905222E-2,-1.7041534E-2,-5.262307E-2,-1.7206794E-2,-9.893844E-2,8.242495E-3,4.17969E-2],"split_indices":[2,1,0,3,1,2,3,0,0,0,0,0,0,0,0],"split_type":[0,0,0,0,0,0,0,0,0,0,0,0,0,0,0],"sum_hessian":[1.596E3,4.15E2,1.181E3,6.5E1,3.5E2,1.66E2,1.015E3,3.1E1,3.4E1,2.06E2,1.44E2,1.31E2,3.5E1,6.29E2,3.86E2],"tree_param":{"num_deleted":"0","num_feature":"4","num_nodes":"15","size_leaf_vector":"1"}},{"base_weights":[-3.322388E-3,-7.195141E-1,2.5368118E-1,-6.621794E-1,-1.5672964E0,-4.1786295E-1,4.5139313E-1,-3.9638087E-2,6.5629825E-2,1.00013636E-1,-1.6320045E-1,1.9944948E-3,-6.469988E-2,-1.7372693E-1,2.4725651E-2],"categories":[],"categories_nodes":[],"categories_segments":[],"categories_sizes":[],"default_left":[0,0,0,0,0,0,0,0,0,0,0,0,0,0,0],"id":40,"left_children":[1,3,5,7,9,11,13,-1,-1,-1,-1,-1,-1,-1,-1],"loss_changes":[2.9413245E2,1.9474442E1,1.5632883E2,1.0341531E2,1.6391052E2,1.07533875E2,1.5559901E2,0E0,0E0,0E0,0E0,0E0,0E0,0E0,0E0],"parents":[2147483647,0,0,1,1,2,2,3,3,4,4,5,5,6,6],"right_children":[2,4,6,8,10,12,14,-1,-1,-1,-1,-1,-1,-1,-1],"split_conditions":[-7.469686E-1,1.5099113E0,-3.9623666E-1,9.912395E-1,-1.2650596E0,4.6191037E-1,-1.2563385E0,-3.9638087E-2,6.5629825E-2,1.00013636E-1,-1.6320045E-1,1.9944948E-3,-6.469988E-2,-1.7372693E-1,2.4725651E-2],"split_indices":[3,0,2,0,3,3,0,0,0,0,0,0,0,0,0],"split_type":[0,0,0,0,0,0,0,0,0,0,0,0,0,0,0],"sum_hessian":[1.596E3,4.21E2,1.175E3,3.96E2,2.5E1,2.67E2,9.08E2,3.72E2,2.4E1,8E0,1.7E1,1.76E2,9.1E1,9E0,8.99E2],"tree_param":{"num_deleted":"0","num_feature":"4","num_nodes":"15","size_leaf_vector":"1"}},{"base_weights":[-3.312258E-3,-4.8667303E-1,3.4836894E-1,-1.1232568E0,-3.9149508E-1,-5.1630624E-2,7.1930945E-1,-6.843948E-2,1.20978475E-1,-2.6180357E-2,3.7521197E-4,-1.9018173E-1,8.4303174E-4,-5.116292E-3,5.238914E-2],"categories":[],"categories_nodes":[],"categories_segments":[],"categories_sizes":[],"default_left":[0,0,0,0,0,0,0,0,0,0,0,0,0,0,0],"id":41,"left_children":[1,3,5,7,9,11,13,-1,-1,-1,-1,-1,-1,-1,-1],"loss_changes":[2.716418E2,4.0336456E1,1.3728499E2,7.899149E1,3.0946236E1,1.1467698E2,1.2965216E2,0E0,0E0,0E0,0E0,0E0,0E0,0E0,0E0],"parents":[2147483647,0,0,1,1,2,2,3,3,4,4,5,5,6,6],"right_children":[2,4,6,8,10,12,14,-1,-1,-1,-1,-1,-1,-1,-1],"split_conditions":[-2.199058E-1,-1.4332541E0,4.7256768E-1,1.5077295E0,2.8921336E-1,-1.4347637E0,4.7343606E-1,-6.843948E-2,1.20978475E-1,-2.6180357E-2,3.7521197E-4,-1.9018173E-1,8.4303174E-4,-5.116292E-3,5.238914E-2],"split_indices":[1,1,0,2,3,2,1,0,0,0,0,0,0,0,0],"split_type":[0,0,0,0,0,0,0,0,0,0,0,0,0,0,0],"sum_hessian":[1.596E3,6.72E2,9.24E2,8.6E1,5.86E2,4.45E2,4.79E2,8.1E1,5E0,4.4E2,1.46E2,7E0,4.38E2,1.37E2,3.42E2],"tree_param":{"num_deleted":"0","num_feature":"4","num_nodes":"15","size_leaf_vector":"1"}},{"base_weights":[-3.2188483E-3,-4.773235E-1,3.2694662E-1,-6.573579E-1,-1.5199651E-1,-1.5144023E0,4.102818E-1,-3.0089749E-2,-7.4023895E-2,1.1592115E-3,-4.6736903E-2,-1.2383121E-1,-5.1437755E-4,-4.450908E-2,2.3980312E-2],"categories":[],"categories_nodes":[],"categories_segments":[],"categories_sizes":[],"default_left":[0,0,0,0,0,0,0,0,0,0,0,0,0,0,0],"id":42,"left_children":[1,3,5,7,9,11,13,-1,-1,-1,-1,-1,-1,-1,-1],"loss_changes":[2.5013925E2,3.8322037E1,1.4517047E2,1.8409195E1,3.2245163E1,5.93135E1,8.174574E1,0E0,0E0,0E0,0E0,0E0,0E0,0E0,0E0],"parents":[2147483647,0,0,1,1,2,2,3,3,4,4,5,5,6,6],"right_children":[2,4,6,8,10,12,14,-1,-1,-1,-1,-1,-1,-1,-1],"split_conditions":[-2.2887762E-1,-7.469686E-1,-1.0865831E0,1.5099113E0,9.912395E-1,1.4980923E0,-9.1550016E-1,-3.0089749E-2,-7.4023895E-2,1.1592115E-3,-4.6736903E-2,-1.2383121E-1,-5.1437755E-4,-4.450908E-2,2.3980312E-2],"split_indices":[3,3,1,0,0,3,2,0,0,0,0,0,0,0,0],"split_type":[0,0,0,0,0,0,0,0,0,0,0,0,0,0,0],"sum_hessian":[1.596E3,6.55E2,9.41E2,4.21E2,2.34E2,4E1,9.01E2,3.96E2,2.5E1,1.92E2,4.2E1,2.4E1,1.6E1,4.5E1,8.56E2],"tree_param":{"num_deleted":"0","num_feature":"4","num_nodes":"15","size_leaf_vector":"1"}},{"base_weights":[-3.2422822E-3,-5.030377E-1,2.8851464E-1,-1.2683519E0,-3.9230844E-1,-2.163222E0,3.4028205E-1,-7.12932E-2,2.557505E-1,-4.1860905E-2,-1.0555117E-2,-1.3552407E-2,-1.451011E-1,6.3031125E-3,4.0235374E-2],"categories":[],"categories_nodes":[],"categories_segments":[],"categories_sizes":[],"default_left":[0,0,0,0,0,0,0,0,0,0,0,0,0,0,0],"id":43,"left_children":[1,3,5,7,9,11,13,-1,-1,-1,-1,-1,-1,-1,-1],"loss_changes":[2.3301772E2,4.9415848E1,1.2879842E2,8.169704E1,4.1423347E1,2.8570099E1,9.82933E1,0E0,0E0,0E0,0E0,0E0,0E0,0E0,0E0],"parents":[2147483647,0,0,1,1,2,2,3,3,4,4,5,5,6,6],"right_children":[2,4,6,8,10,12,14,-1,-1,-1,-1,-1,-1,-1,-1],"split_conditions":[-3.9188537E-1,-1.4377565E0,-1.2599186E0,1.5077295E0,-1.088588E0,-1.4377565E0,9.8000133E-1,-7.12932E-2,2.557505E-1,-4.1860905E-2,-1.0555117E-2,-1.3552407E-2,-1.451011E-1,6.3031125E-3,4.0235374E-2],"split_indices":[0,3,1,2,2,3,3,0,0,0,0,0,0,0,0],"split_type":[0,0,0,0,0,0,0,0,0,0,0,0,0,0,0],"sum_hessian":[1.596E3,5.88E2,1.008E3,7.3E1,5.15E2,2E1,9.88E2,7.2E1,1E0,1.48E2,3.67E2,6E0,1.4E1,6.77E2,3.11E2],"tree_param":{"num_deleted":"0","num_feature":"4","num_nodes":"15","size_leaf_vector":"1"}},{"base_weights":[-3.0675821E-3,-4.284856E-1,3.064561E-1,-9.8544884E-1,-3.4520745E-1,-6.318012E-2,6.492713E-1,-6.074069E-2,1.1567241E-1,2.2128513E-2,-2.0181185E-2,7.4232453E-3,-6.419959E-2,1.9391237E-2,7.8965776E-2],"categories":[],"categories_nodes":[],"categories_segments":[],"categories_sizes":[],"default_left":[0,0,0,0,0,0,0,0,0,0,0,0,0,0,0],"id":44,"left_children":[1,3,5,7,9,11,13,-1,-1,-1,-1,-1,-1,-1,-1],"loss_changes":[2.104194E2,3.0875488E1,1.1725415E2,6.863909E1,2.7191788E1,1.15427536E2,1.1610277E2,0E0,0E0,0E0,0E0,0E0,0E0,0E0,0E0],"parents":[2147483647,0,0,1,1,2,2,3,3,4,4,5,5,6,6],"right_children":[2,4,6,8,10,12,14,-1,-1,-1,-1,-1,-1,-1,-1],"split_conditions":[-2.199058E-1,-1.4332541E0,4.7256768E-1,1.5077295E0,-1.429229E0,1.3346417E0,1.3346417E0,-6.074069E-2,1.1567241E-1,2.2128513E-2,-2.0181185E-2,7.4232453E-3,-6.419959E-2,1.9391237E-2,7.8965776E-2],"split_indices":[1,1,0,2,0,2,2,0,0,0,0,0,0,0,0],"split_type":[0,0,0,0,0,0,0,0,0,0,0,0,0,0,0],"sum_hessian":[1.596E3,6.72E2,9.24E2,8.6E1,5.86E2,4.45E2,4.79E2,8.1E1,5E0,4E1,5.46E2,3.8E2,6.5E1,3.75E2,1.04E2],"tree_param":{"num_deleted":"0","num_feature":"4","num_nodes":"15","size_leaf_vector":"1"}},{"base_weights":[-2.852512E-3,-4.6217418E-1,2.6527762E-1,-1.1759053E0,-3.5892168E-1,-2.0260131E0,3.1366166E-1,-6.635314E-2,2.4646492E-1,-3.8819056E-2,-9.446034E-3,-1.0947854E-2,-1.3671194E-1,5.663517E-3,3.740611E-2],"categories":[],"categories_nodes":[],"categories_segments":[],"categories_sizes":[],"default_left":[0,0,0,0,0,0,0,0,0,0,0,0,0,0,0],"id":45,"left_children":[1,3,5,7,9,11,13,-1,-1,-1,-1,-1,-1,-1,-1],"loss_changes":[1.968059E2,4.298401E1,1.1249518E2,7.483221E1,3.6473076E1,2.6277176E1,8.60197E1,0E0,0E0,0E0,0E0,0E0,0E0,0E0,0E0],"parents":[2147483647,0,0,1,1,2,2,3,3,4,4,5,5,6,6],"right_children":[2,4,6,8,10,12,14,-1,-1,-1,-1,-1,-1,-1,-1],"split_conditions":[-3.9188537E-1,-1.4377565E0,-1.2599186E0,1.5077295E0,-1.088588E0,-1.4377565E0,9.8000133E-1,-6.635314E-2,2.4646492E-1,-3.8819056E-2,-9.446034E-3,-1.0947854E-2,-1.3671194E-1,5.663517E-3,3.740611E-2],"split_indices":[0,3,1,2,2,3,3,0,0,0,0,0,0,0,0],"split_type":[0,0,0,0,0,0,0,0,0,0,0,0,0,0,0],"sum_hessian":[1.596E3,5.88E2,1.008E3,7.3E1,5.15E2,2E1,9.88E2,7.2E1,1E0,1.48E2,3.67E2,6E0,1.4E1,6.77E2,3.11E2],"tree_param":{"num_deleted":"0","num_feature":"4","num_nodes":"15","size_leaf_vector":"1"}},{"base_weights":[-2.692908E-3,-4.0441915E-1,2.7706835E-1,-3.404916E-1,-1.1404144E0,-1.3624386E0,3.5128424E-1,-2.51827E-2,2.0751053E-2,-1.0199511E-1,1.0139351E-1,-1.5424547E-1,-2.7165791E-2,2.091075E-3,3.0454243E-2],"categories":[],"categories_nodes":[],"categories_segments":[],"categories_sizes":[],"default_left":[0,0,0,0,0,0,0,0,0,0,0,0,0,0,0],"id":46,"left_children":[1,3,5,7,9,11,13,-1,-1,-1,-1,-1,-1,-1,-1],"loss_changes":[1.795948E2,3.047676E1,1.1509873E2,7.478813E1,1.5232799E2,5.6171425E1,7.19358E1,0E0,0E0,0E0,0E0,0E0,0E0,0E0,0E0],"parents":[2147483647,0,0,1,1,2,2,3,3,4,4,5,5,6,6],"right_children":[2,4,6,8,10,12,14,-1,-1,-1,-1,-1,-1,-1,-1],"split_conditions":[-2.2887762E-1,1.5099113E0,-1.0865831E0,1.2678644E-1,9.934425E-1,-1.2563385E0,4.6920252E-1,-2.51827E-2,2.0751053E-2,-1.0199511E-1,1.0139351E-1,-1.5424547E-1,-2.7165791E-2,2.091075E-3,3.0454243E-2],"split_indices":[3,0,1,0,1,0,2,0,0,0,0,0,0,0,0],"split_type":[0,0,0,0,0,0,0,0,0,0,0,0,0,0,0],"sum_hessian":[1.596E3,6.55E2,9.41E2,6.04E2,5.1E1,4E1,9.01E2,4.97E2,1.07E2,4E1,1.1E1,1.2E1,2.8E1,4.1E2,4.91E2],"tree_param":{"num_deleted":"0","num_feature":"4","num_nodes":"15","size_leaf_vector":"1"}},{"base_weights":[-2.6548135E-3,-5.4273796E-1,1.8742746E-1,-3.5282716E-1,-8.952414E-1,-3.0048892E0,2.2549847E-1,-3.9183933E-2,-1.12739E-3,-1.2213891E-1,-3.212478E-2,-1.9886832E-1,2.4093287E-1,-2.215244E-2,1.644454E-2],"categories":[],"categories_nodes":[],"categories_segments":[],"categories_sizes":[],"default_left":[0,0,0,0,0,0,0,0,0,0,0,0,0,0,0],"id":47,"left_children":[1,3,5,7,9,11,13,-1,-1,-1,-1,-1,-1,-1,-1],"loss_changes":[1.6405011E2,2.7532913E1,1.4433163E2,3.86883E1,5.5144867E1,1.2568066E2,8.09501E1,0E0,0E0,0E0,0E0,0E0,0E0,0E0,0E0],"parents":[2147483647,0,0,1,1,2,2,3,3,4,4,5,5,6,6],"right_children":[2,4,6,8,10,12,14,-1,-1,-1,-1,-1,-1,-1,-1],"split_conditions":[-7.424123E-1,-7.399122E-1,-1.4377565E0,-1.2599186E0,-5.665767E-1,1.5077295E0,-7.376666E-1,-3.9183933E-2,-1.12739E-3,-1.2213891E-1,-3.212478E-2,-1.9886832E-1,2.4093287E-1,-2.215244E-2,1.644454E-2],"split_indices":[2,1,3,1,1,2,0,0,0,0,0,0,0,0,0],"split_type":[0,0,0,0,0,0,0,0,0,0,0,0,0,0,0],"sum_hessian":[1.596E3,4.15E2,1.181E3,2.71E2,1.44E2,1.3E1,1.168E3,1.17E2,1.54E2,1.9E1,1.25E2,1.2E1,1E0,1.56E2,1.012E3],"tree_param":{"num_deleted":"0","num_feature":"4","num_nodes":"15","size_leaf_vector":"1"}},{"base_weights":[-2.6209448E-3,-3.6974624E-1,2.5304446E-1,-3.0771464E-1,-1.0843495E0,-9.7374445E-1,3.4058383E-1,-2.297182E-2,1.973702E-2,-9.703671E-2,9.659972E-2,-3.682635E-2,-1.2562744E-1,-1.0647666E-1,1.8859316E-2],"categories":[],"categories_nodes":[],"categories_segments":[],"categories_sizes":[],"default_left":[0,0,0,0,0,0,0,0,0,0,0,0,0,0,0],"id":48,"left_children":[1,3,5,7,9,11,13,-1,-1,-1,-1,-1,-1,-1,-1],"loss_changes":[1.4998994E2,2.8745483E1,1.0149525E2,6.466087E1,1.3807335E2,2.1146416E1,8.036611E1,0E0,0E0,0E0,0E0,0E0,0E0,0E0,0E0],"parents":[2147483647,0,0,1,1,2,2,3,3,4,4,5,5,6,6],"right_children":[2,4,6,8,10,12,14,-1,-1,-1,-1,-1,-1,-1,-1],"split_conditions":[-2.2887762E-1,1.5099113E0,-9.1550016E-1,1.2678644E-1,9.934425E-1,1.5134488E0,-1.2563385E0,-2.297182E-2,1.973702E-2,-9.703671E-2,9.659972E-2,-3.682635E-2,-1.2562744E-1,-1.0647666E-1,1.8859316E-2],"split_indices":[3,0,2,0,1,1,0,0,0,0,0,0,0,0,0],"split_type":[0,0,0,0,0,0,0,0,0,0,0,0,0,0,0],"sum_hessian":[1.596E3,6.55E2,9.41E2,6.04E2,5.1E1,6.2E1,8.79E2,4.97E2,1.07E2,4E1,1.1E1,5.5E1,7E0,1.2E1,8.67E2],"tree_param":{"num_deleted":"0","num_feature":"4","num_nodes":"15","size_leaf_vector":"1"}},{"base_weights":[-2.6486164E-3,-4.9342725E-1,1.7346637E-1,-4.0434867E-1,-9.7645336E-1,-8.313537E-2,4.8106423E-1,-2.3933792E-2,1.8390909E-2,-7.76174E-2,1.9846348E-2,3.2336274E-4,-6.505317E-2,-1.1822577E-2,4.7453254E-2],"categories":[],"categories_nodes":[],"categories_segments":[],"categories_sizes":[],"default_left":[0,0,0,0,0,0,0,0,0,0,0,0,0,0,0],"id":49,"left_children":[1,3,5,7,9,11,13,-1,-1,-1,-1,-1,-1,-1,-1],"loss_changes":[1.3811984E2,1.776268E1,9.286185E1,2.0722755E1,5.2026123E1,7.006958E1,1.7987631E2,0E0,0E0,0E0,0E0,0E0,0E0,0E0,0E0],"parents":[2147483647,0,0,1,1,2,2,3,3,4,4,5,5,6,6],"right_children":[2,4,6,8,10,12,14,-1,-1,-1,-1,-1,-1,-1,-1],"split_conditions":[-7.469686E-1,4.7343606E-1,4.7343606E-1,-2.199058E-1,-5.0060995E-2,1.6707894E0,4.7256768E-1,-2.3933792E-2,1.8390909E-2,-7.76174E-2,1.9846348E-2,3.2336274E-4,-6.505317E-2,-1.1822577E-2,4.7453254E-2],"split_indices":[3,1,1,1,2,3,0,0,0,0,0,0,0,0,0],"split_type":[0,0,0,0,0,0,0,0,0,0,0,0,0,0,0],"sum_hessian":[1.596E3,4.21E2,1.175E3,3.57E2,6.4E1,6.41E2,5.34E2,3.26E2,3.1E1,4.5E1,1.9E1,5.98E2,4.3E1,2.11E2,3.23E2],"tree_param":{"num_deleted":"0","num_feature":"4","num_nodes":"15","size_leaf_vector":"1"}},{"base_weights":[-2.573938E-3,-3.740918E-1,2.0967232E-1,-2.2959031E-1,-1.1396531E0,-1.1650357E-1,6.1121E-1,-2.124668E-2,4.118393E-2,-7.944124E-2,-2.2977252E-2,-1.3199572E-1,-3.5330795E-3,1.1446467E-2,5.0133366E-2],"categories":[],"categories_nodes":[],"categories_segments":[],"categories_sizes":[],"default_left":[0,0,0,0,0,0,0,0,0,0,0,0,0,0,0],"id":50,"left_children":[1,3,5,7,9,11,13,-1,-1,-1,-1,-1,-1,-1,-1],"loss_changes":[1.2600712E2,6.4011314E1,1.3326962E2,1.0116701E2,2.7374512E1,6.482458E1,6.800929E1,0E0,0E0,0E0,0E0,0E0,0E0,0E0,0E0],"parents":[2147483647,0,0,1,1,2,2,3,3,4,4,5,5,6,6],"right_children":[2,4,6,8,10,12,14,-1,-1,-1,-1,-1,-1,-1,-1],"split_conditions":[-3.9623666E-1,4.6191037E-1,6.346074E-1,-2.2887762E-1,1.4980923E0,-1.4377565E0,8.153782E-1,-2.124668E-2,4.118393E-2,-7.944124E-2,-2.2977252E-2,-1.3199572E-1,-3.5330795E-3,1.1446467E-2,5.0133366E-2],"split_indices":[2,3,3,3,3,3,2,0,0,0,0,0,0,0,0],"split_type":[0,0,0,0,0,0,0,0,0,0,0,0,0,0,0],"sum_hessian":[1.596E3,5.8E2,1.016E3,4.89E2,9.1E1,5.61E2,4.55E2,4.13E2,7.6E1,5.4E1,3.7E1,9E0,5.52E2,2.31E2,2.24E2],"tree_param":{"num_deleted":"0","num_feature":"4","num_nodes":"15","size_leaf_vector":"1"}},{"base_weights":[-2.5430406E-3,-3.1978327E-1,2.2827342E-1,-7.4942386E-1,-2.5556093E-1,-2.3007284E-1,4.0686464E-1,-4.80412E-2,1.1323074E-1,2.8972978E-2,-1.5884105E-2,-6.131018E-2,-5.110685E-4,4.613654E-3,3.461734E-2],"categories":[],"categories_nodes":[],"categories_segments":[],"categories_sizes":[],"default_left":[0,0,0,0,0,0,0,0,0,0,0,0,0,0,0],"id":51,"left_children":[1,3,5,7,9,11,13,-1,-1,-1,-1,-1,-1,-1,-1],"loss_changes":[1.17012146E2,1.837825E1,7.5810974E1,5.760952E1,3.0633205E1,5.692767E1,5.974975E1,0E0,0E0,0E0,0E0,0E0,0E0,0E0,0E0],"parents":[2147483647,0,0,1,1,2,2,3,3,4,4,5,5,6,6],"right_children":[2,4,6,8,10,12,14,-1,-1,-1,-1,-1,-1,-1,-1],"split_conditions":[-2.199058E-1,-1.4332541E0,-5.0060995E-2,1.5077295E0,-1.429229E0,-9.196656E-1,6.346074E-1,-4.80412E-2,1.1323074E-1,2.8972978E-2,-1.5884105E-2,-6.131018E-2,-5.110685E-4,4.613654E-3,3.461734E-2],"split_indices":[1,1,2,2,0,3,3,0,0,0,0,0,0,0,0],"split_type":[0,0,0,0,0,0,0,0,0,0,0,0,0,0,0],"sum_hessian":[1.596E3,6.72E2,9.24E2,8.6E1,5.86E2,2.59E2,6.65E2,8.1E1,5E0,4E1,5.46E2,4.6E1,2.13E2,3.17E2,3.48E2],"tree_param":{"num_deleted":"0","num_feature":"4","num_nodes":"15","size_leaf_vector":"1"}},{"base_weights":[-2.381072E-3,-3.3940765E-1,1.9435929E-1,-9.3364644E-1,-2.5352958E-1,-1.7850969E0,2.3619369E-1,-5.3802665E-2,2.3655131E-1,2.4194485E-5,-2.498944E-2,-2.1623638E-2,-1.3817628E-1,2.122997E-1,1.0575183E-2],"categories":[],"categories_nodes":[],"categories_segments":[],"categories_sizes":[],"default_left":[0,0,0,0,0,0,0,0,0,0,0,0,0,0,0],"id":52,"left_children":[1,3,5,7,9,11,13,-1,-1,-1,-1,-1,-1,-1,-1],"loss_changes":[1.0595782E2,2.9821182E1,8.3976265E1,6.478575E1,3.2277664E1,2.6597229E1,9.7015045E1,0E0,0E0,0E0,0E0,0E0,0E0,0E0,0E0],"parents":[2147483647,0,0,1,1,2,2,3,3,4,4,5,5,6,6],"right_children":[2,4,6,8,10,12,14,-1,-1,-1,-1,-1,-1,-1,-1],"split_conditions":[-3.9188537E-1,-1.4377565E0,-1.2599186E0,1.5077295E0,-7.399122E-1,-1.4332541E0,-1.4377565E0,-5.3802665E-2,2.3655131E-1,2.4194485E-5,-2.498944E-2,-2.1623638E-2,-1.3817628E-1,2.122997E-1,1.0575183E-2],"split_indices":[0,3,1,2,1,1,3,0,0,0,0,0,0,0,0],"split_type":[0,0,0,0,0,0,0,0,0,0,0,0,0,0,0],"sum_hessian":[1.596E3,5.88E2,1.008E3,7.3E1,5.15E2,2E1,9.88E2,7.2E1,1E0,2.54E2,2.61E2,9E0,1.1E1,5E0,9.83E2],"tree_param":{"num_deleted":"0","num_feature":"4","num_nodes":"15","size_leaf_vector":"1"}},{"base_weights":[-2.123804E-3,-2.972773E-1,2.1262261E-1,-6.925269E-1,-2.3819044E-1,-6.898655E-2,4.738415E-1,-4.453337E-2,1.0654073E-1,2.8463563E-2,-1.4913887E-2,7.156831E-3,-6.462353E-2,-1.1635305E-2,3.783635E-2],"categories":[],"categories_nodes":[],"categories_segments":[],"categories_sizes":[],"default_left":[0,0,0,0,0,0,0,0,0,0,0,0,0,0,0],"id":53,"left_children":[1,3,5,7,9,11,13,-1,-1,-1,-1,-1,-1,-1,-1],"loss_changes":[1.012861E2,1.555233E1,6.8077194E1,5.0567238E1,2.8649967E1,1.1593507E2,9.611469E1,0E0,0E0,0E0,0E0,0E0,0E0,0E0,0E0],"parents":[2147483647,0,0,1,1,2,2,3,3,4,4,5,5,6,6],"right_children":[2,4,6,8,10,12,14,-1,-1,-1,-1,-1,-1,-1,-1],"split_conditions":[-2.199058E-1,-1.4332541E0,4.7256768E-1,1.5077295E0,-1.429229E0,1.3346417E0,4.7343606E-1,-4.453337E-2,1.0654073E-1,2.8463563E-2,-1.4913887E-2,7.156831E-3,-6.462353E-2,-1.1635305E-2,3.783635E-2],"split_indices":[1,1,0,2,0,2,1,0,0,0,0,0,0,0,0],"split_type":[0,0,0,0,0,0,0,0,0,0,0,0,0,0,0],"sum_hessian":[1.596E3,6.72E2,9.24E2,8.6E1,5.86E2,4.45E2,4.79E2,8.1E1,5E0,4E1,5.46E2,3.8E2,6.5E1,1.37E2,3.42E2],"tree_param":{"num_deleted":"0","num_feature":"4","num_nodes":"15","size_leaf_vector":"1"}},{"base_weights":[-1.9897046E-3,-4.080504E-1,1.4372423E-1,-2.4248037E-1,-6.619265E-1,-2.869905E-1,2.7055353E-1,-1.6284887E-3,-4.65572E-2,-4.995908E-2,1.3355941E-2,5.876872E-3,-5.310738E-2,-1.5549795E-1,1.5390708E-2],"categories":[],"categories_nodes":[],"categories_segments":[],"categories_sizes":[],"default_left":[0,0,0,0,0,0,0,0,0,0,0,0,0,0,0],"id":54,"left_children":[1,3,5,7,9,11,13,-1,-1,-1,-1,-1,-1,-1,-1],"loss_changes":[9.455106E1,1.7577965E1,6.431928E1,3.7121025E1,5.2278885E1,8.416234E1,1.15454956E2,0E0,0E0,0E0,0E0,0E0,0E0,0E0,0E0],"parents":[2147483647,0,0,1,1,2,2,3,3,4,4,5,5,6,6],"right_children":[2,4,6,8,10,12,14,-1,-1,-1,-1,-1,-1,-1,-1],"split_conditions":[-7.469686E-1,-7.399122E-1,-3.9623666E-1,-5.64776E-1,1.2678644E-1,4.6191037E-1,-1.2563385E0,-1.6284887E-3,-4.65572E-2,-4.995908E-2,1.3355941E-2,5.876872E-3,-5.310738E-2,-1.5549795E-1,1.5390708E-2],"split_indices":[3,1,2,0,0,3,0,0,0,0,0,0,0,0,0],"split_type":[0,0,0,0,0,0,0,0,0,0,0,0,0,0,0],"sum_hessian":[1.596E3,4.21E2,1.175E3,2.56E2,1.65E2,2.67E2,9.08E2,1.97E2,5.9E1,1.21E2,4.4E1,1.76E2,9.1E1,9E0,8.99E2],"tree_param":{"num_deleted":"0","num_feature":"4","num_nodes":"15","size_leaf_vector":"1"}},{"base_weights":[-2.0604401E-3,-2.1340114E-1,2.656407E-1,-1.5034188E-1,-7.542297E-1,-1.9695795E0,3.237342E-1,-1.6749734E-2,9.349189E-3,-6.0837515E-2,6.925412E-2,-1.3137229E-1,-4.0940803E-2,5.1994524E-3,3.8186498E-2],"categories":[],"categories_nodes":[],"categories_segments":[],"categories_sizes":[],"default_left":[0,0,0,0,0,0,0,0,0,0,0,0,0,0,0],"id":55,"left_children":[1,3,5,7,9,11,13,-1,-1,-1,-1,-1,-1,-1,-1],"loss_changes":[9.040879E1,3.0341698E1,9.218312E1,4.9955418E1,9.3706535E1,1.14754715E1,6.64412E1,0E0,0E0,0E0,0E0,0E0,0E0,0E0,0E0],"parents":[2147483647,0,0,1,1,2,2,3,3,4,4,5,5,6,6],"right_children":[2,4,6,8,10,12,14,-1,-1,-1,-1,-1,-1,-1,-1],"split_conditions":[2.8921336E-1,1.3401134E0,-1.2563385E0,-2.199058E-1,1.3370208E0,1.6707894E0,9.934425E-1,-1.6749734E-2,9.349189E-3,-6.0837515E-2,6.925412E-2,-1.3137229E-1,-4.0940803E-2,5.1994524E-3,3.8186498E-2],"split_indices":[3,1,0,1,0,3,1,0,0,0,0,0,0,0,0],"split_type":[0,0,0,0,0,0,0,0,0,0,0,0,0,0,0],"sum_hessian":[1.596E3,8.92E2,7.04E2,8E2,9.2E1,1.7E1,6.87E2,5.17E2,2.83E2,7.6E1,1.6E1,1E1,7E0,4.59E2,2.28E2],"tree_param":{"num_deleted":"0","num_feature":"4","num_nodes":"15","size_leaf_vector":"1"}},{"base_weights":[-2.0373955E-3,-2.0272985E-1,2.5217593E-1,-1.4283395E-1,-7.1642756E-1,-1.8806735E0,3.076107E-1,-1.5913865E-2,8.883387E-3,-5.7835132E-2,6.599511E-2,-1.2540083E-1,-3.9149642E-2,4.9400455E-3,3.628553E-2],"categories":[],"categories_nodes":[],"categories_segments":[],"categories_sizes":[],"default_left":[0,0,0,0,0,0,0,0,0,0,0,0,0,0,0],"id":56,"left_children":[1,3,5,7,9,11,13,-1,-1,-1,-1,-1,-1,-1,-1],"loss_changes":[8.152798E1,2.7373837E1,8.393347E1,4.5096687E1,8.490544E1,1.0431442E1,5.999301E1,0E0,0E0,0E0,0E0,0E0,0E0,0E0,0E0],"parents":[2147483647,0,0,1,1,2,2,3,3,4,4,5,5,6,6],"right_children":[2,4,6,8,10,12,14,-1,-1,-1,-1,-1,-1,-1,-1],"split_conditions":[2.8921336E-1,1.3401134E0,-1.2563385E0,-2.199058E-1,1.3370208E0,1.6707894E0,9.934425E-1,-1.5913865E-2,8.883387E-3,-5.7835132E-2,6.599511E-2,-1.2540083E-1,-3.9149642E-2,4.9400455E-3,3.628553E-2],"split_indices":[3,1,0,1,0,3,1,0,0,0,0,0,0,0,0],"split_type":[0,0,0,0,0,0,0,0,0,0,0,0,0,0,0],"sum_hessian":[1.596E3,8.92E2,7.04E2,8E2,9.2E1,1.7E1,6.87E2,5.17E2,2.83E2,7.6E1,1.6E1,1E1,7E0,4.59E2,2.28E2],"tree_param":{"num_deleted":"0","num_feature":"4","num_nodes":"15","size_leaf_vector":"1"}},{"base_weights":[-2.011989E-3,-1.9259204E-1,2.3939227E-1,-2.2663064E-1,6.740488E-1,-5.6167674E-1,3.7894776E-1,-8.220668E-3,-5.2672703E-2,-2.9680511E-2,1.15966216E-1,1.1808928E-1,-5.0022315E-2,7.902425E-3,3.831582E-2],"categories":[],"categories_nodes":[],"categories_segments":[],"categories_sizes":[],"default_left":[0,0,0,0,0,0,0,0,0,0,0,0,0,0,0],"id":57,"left_children":[1,3,5,7,9,11,13,-1,-1,-1,-1,-1,-1,-1,-1],"loss_changes":[7.351902E1,2.6495586E1,7.902733E1,4.406752E1,7.228881E1,1.370491E2,5.130612E1,0E0,0E0,0E0,0E0,0E0,0E0,0E0,0E0],"parents":[2147483647,0,0,1,1,2,2,3,3,4,4,5,5,6,6],"right_children":[2,4,6,8,10,12,14,-1,-1,-1,-1,-1,-1,-1,-1],"split_conditions":[2.8921336E-1,1.682802E0,-3.9623666E-1,1.5134488E0,-2.199058E-1,4.6191037E-1,9.934425E-1,-8.220668E-3,-5.2672703E-2,-2.9680511E-2,1.15966216E-1,1.1808928E-1,-5.0022315E-2,7.902425E-3,3.831582E-2],"split_indices":[3,0,2,1,1,3,1,0,0,0,0,0,0,0,0],"split_type":[0,0,0,0,0,0,0,0,0,0,0,0,0,0,0],"sum_hessian":[1.596E3,8.92E2,7.04E2,8.59E2,3.3E1,1.04E2,6E2,8E2,5.9E1,1.9E1,1.4E1,1.3E1,9.1E1,3.83E2,2.17E2],"tree_param":{"num_deleted":"0","num_feature":"4","num_nodes":"15","size_leaf_vector":"1"}},{"base_weights":[-1.8238655E-3,-4.009533E-1,1.0484421E-1,1.852792E-1,-5.4440945E-1,-2.4673958E0,1.4407809E-1,-2.1383496E-2,2.7501124E-1,-1.7575359E-2,-9.393567E-2,-1.5567221E-1,2.2903684E-1,-1.4600708E-2,1.105467E-2],"categories":[],"categories_nodes":[],"categories_segments":[],"categories_sizes":[],"default_left":[0,0,0,0,0,0,0,0,0,0,0,0,0,0,0],"id":58,"left_children":[1,3,5,7,9,11,13,-1,-1,-1,-1,-1,-1,-1,-1],"loss_changes":[6.803331E1,2.844212E1,1.2761432E2,2.2062428E2,6.9092384E1,1.0077711E2,4.1811684E1,0E0,0E0,0E0,0E0,0E0,0E0,0E0,0E0],"parents":[2147483647,0,0,1,1,2,2,3,3,4,4,5,5,6,6],"right_children":[2,4,6,8,10,12,14,-1,-1,-1,-1,-1,-1,-1,-1],"split_conditions":[-9.1550016E-1,-1.4377565E0,-1.4377565E0,1.2678644E-1,6.454583E-1,1.5077295E0,-7.376666E-1,-2.1383496E-2,2.7501124E-1,-1.7575359E-2,-9.393567E-2,-1.5567221E-1,2.2903684E-1,-1.4600708E-2,1.105467E-2],"split_indices":[2,3,3,0,0,2,0,0,0,0,0,0,0,0,0],"split_type":[0,0,0,0,0,0,0,0,0,0,0,0,0,0,0],"sum_hessian":[1.596E3,3.36E2,1.26E3,6.6E1,2.7E2,1.8E1,1.242E3,6E1,6E0,2.37E2,3.3E1,1.7E1,1E0,1.86E2,1.056E3],"tree_param":{"num_deleted":"0","num_feature":"4","num_nodes":"15","size_leaf_vector":"1"}},{"base_weights":[-1.600167E-3,-1.7721032E-1,2.2084162E-1,-2.0942797E-1,6.429188E-1,-1.7473273E0,2.7201343E-1,-7.509295E-3,-4.9840953E-2,-2.7483413E-2,1.09508686E-1,-1.1761037E-1,-3.486007E-2,4.2933044E-3,3.2237303E-2],"categories":[],"categories_nodes":[],"categories_segments":[],"categories_sizes":[],"default_left":[0,0,0,0,0,0,0,0,0,0,0,0,0,0,0],"id":59,"left_children":[1,3,5,7,9,11,13,-1,-1,-1,-1,-1,-1,-1,-1],"loss_changes":[6.24228E1,2.3730062E1,7.1479195E1,3.9966427E1,6.3941895E1,9.793644E0,4.768027E1,0E0,0E0,0E0,0E0,0E0,0E0,0E0,0E0],"parents":[2147483647,0,0,1,1,2,2,3,3,4,4,5,5,6,6],"right_children":[2,4,6,8,10,12,14,-1,-1,-1,-1,-1,-1,-1,-1],"split_conditions":[2.8921336E-1,1.682802E0,-1.2563385E0,1.5134488E0,-2.199058E-1,1.6707894E0,9.934425E-1,-7.509295E-3,-4.9840953E-2,-2.7483413E-2,1.09508686E-1,-1.1761037E-1,-3.486007E-2,4.2933044E-3,3.2237303E-2],"split_indices":[3,0,0,1,1,3,1,0,0,0,0,0,0,0,0],"split_type":[0,0,0,0,0,0,0,0,0,0,0,0,0,0,0],"sum_hessian":[1.596E3,8.92E2,7.04E2,8.59E2,3.3E1,1.7E1,6.87E2,8E2,5.9E1,1.9E1,1.4E1,1E1,7E0,4.59E2,2.28E2],"tree_param":{"num_deleted":"0","num_feature":"4","num_nodes":"15","size_leaf_vector":"1"}},{"base_weights":[-1.5773426E-3,-3.1983182E-1,1.1262756E-1,-2.6670772E-1,-1.1186949E0,-6.1159726E-2,3.2096177E-1,-1.877885E-2,6.841451E-2,1.1696903E-1,-1.3927914E-1,4.497491E-3,-4.130547E-2,-1.370586E-2,3.5467193E-2],"categories":[],"categories_nodes":[],"categories_segments":[],"categories_sizes":[],"default_left":[0,0,0,0,0,0,0,0,0,0,0,0,0,0,0],"id":60,"left_children":[1,3,5,7,9,11,13,-1,-1,-1,-1,-1,-1,-1,-1],"loss_changes":[5.8080933E1,1.7610851E1,4.2597694E1,7.1180305E1,1.5638637E2,7.428386E1,1.2384257E2,0E0,0E0,0E0,0E0,0E0,0E0,0E0,0E0],"parents":[2147483647,0,0,1,1,2,2,3,3,4,4,5,5,6,6],"right_children":[2,4,6,8,10,12,14,-1,-1,-1,-1,-1,-1,-1,-1],"split_conditions":[-7.469686E-1,1.5099113E0,4.7343606E-1,9.912395E-1,-1.2650596E0,1.1641301E0,4.7256768E-1,-1.877885E-2,6.841451E-2,1.1696903E-1,-1.3927914E-1,4.497491E-3,-4.130547E-2,-1.370586E-2,3.5467193E-2],"split_indices":[3,0,1,0,3,0,0,0,0,0,0,0,0,0,0],"split_type":[0,0,0,0,0,0,0,0,0,0,0,0,0,0,0],"sum_hessian":[1.596E3,4.21E2,1.175E3,3.96E2,2.5E1,6.41E2,5.34E2,3.72E2,2.4E1,8E0,1.7E1,5.36E2,1.05E2,2.11E2,3.23E2],"tree_param":{"num_deleted":"0","num_feature":"4","num_nodes":"15","size_leaf_vector":"1"}},{"base_weights":[-1.4907578E-3,-3.5958585E-1,9.421071E-2,-1.573428E-1,-7.486347E-1,-2.320177E0,1.3104028E-1,5.796302E-3,-4.970813E-2,7.092082E-2,-5.5659633E-2,-1.4733914E-1,2.239681E-1,-1.3122891E-2,1.0026617E-2],"categories":[],"categories_nodes":[],"categories_segments":[],"categories_sizes":[],"default_left":[0,0,0,0,0,0,0,0,0,0,0,0,0,0,0],"id":61,"left_children":[1,3,5,7,9,11,13,-1,-1,-1,-1,-1,-1,-1,-1],"loss_changes":[5.4763428E1,2.639819E1,1.1243326E2,5.1110172E1,9.243076E1,9.4151665E1,3.4042454E1,0E0,0E0,0E0,0E0,0E0,0E0,0E0,0E0],"parents":[2147483647,0,0,1,1,2,2,3,3,4,4,5,5,6,6],"right_children":[2,4,6,8,10,12,14,-1,-1,-1,-1,-1,-1,-1,-1],"split_conditions":[-9.1550016E-1,-7.376666E-1,-1.4377565E0,-7.399122E-1,-1.4377565E0,1.5077295E0,-7.376666E-1,5.796302E-3,-4.970813E-2,7.092082E-2,-5.5659633E-2,-1.4733914E-1,2.239681E-1,-1.3122891E-2,1.0026617E-2],"split_indices":[2,0,3,1,3,2,0,0,0,0,0,0,0,0,0],"split_type":[0,0,0,0,0,0,0,0,0,0,0,0,0,0,0],"sum_hessian":[1.596E3,3.36E2,1.26E3,2.22E2,1.14E2,1.8E1,1.242E3,1.68E2,5.4E1,1.6E1,9.8E1,1.7E1,1E0,1.86E2,1.056E3],"tree_param":{"num_deleted":"0","num_feature":"4","num_nodes":"15","size_leaf_vector":"1"}},{"base_weights":[-1.3882932E-3,-3.4169158E-1,8.955826E-2,-1.4967257E-1,-7.110703E-1,-2.200135E0,1.2448554E-1,5.508199E-3,-4.7267906E-2,6.758337E-2,-5.2904762E-2,-1.4038144E-1,2.1836889E-1,-2.6703023E-4,1.5870893E-2],"categories":[],"categories_nodes":[],"categories_segments":[],"categories_sizes":[],"default_left":[0,0,0,0,0,0,0,0,0,0,0,0,0,0,0],"id":62,"left_children":[1,3,5,7,9,11,13,-1,-1,-1,-1,-1,-1,-1,-1],"loss_changes":[4.945681E1,2.3796219E1,1.0111955E2,4.6208984E1,8.374965E1,8.8066734E1,3.113594E1,0E0,0E0,0E0,0E0,0E0,0E0,0E0,0E0],"parents":[2147483647,0,0,1,1,2,2,3,3,4,4,5,5,6,6],"right_children":[2,4,6,8,10,12,14,-1,-1,-1,-1,-1,-1,-1,-1],"split_conditions":[-9.1550016E-1,-7.376666E-1,-1.4377565E0,-7.399122E-1,-1.4377565E0,1.5077295E0,6.346074E-1,5.508199E-3,-4.7267906E-2,6.758337E-2,-5.2904762E-2,-1.4038144E-1,2.1836889E-1,-2.6703023E-4,1.5870893E-2],"split_indices":[2,0,3,1,3,2,3,0,0,0,0,0,0,0,0],"split_type":[0,0,0,0,0,0,0,0,0,0,0,0,0,0,0],"sum_hessian":[1.596E3,3.36E2,1.26E3,2.22E2,1.14E2,1.8E1,1.242E3,1.68E2,5.4E1,1.6E1,9.8E1,1.7E1,1E0,7.43E2,4.99E2],"tree_param":{"num_deleted":"0","num_feature":"4","num_nodes":"15","size_leaf_vector":"1"}},{"base_weights":[-1.2773019E-3,-2.0137446E-1,1.4430828E-1,-1.4115272E-1,-5.949513E-1,-2.0402975E0,1.6800015E-1,-1.5823271E-2,8.439556E-3,-9.4176335E-3,-1.2191427E-1,-1.5327355E-1,6.867989E-2,1.7270534E-1,7.49E-3],"categories":[],"categories_nodes":[],"categories_segments":[],"categories_sizes":[],"default_left":[0,0,0,0,0,0,0,0,0,0,0,0,0,0,0],"id":63,"left_children":[1,3,5,7,9,11,13,-1,-1,-1,-1,-1,-1,-1,-1],"loss_changes":[4.655168E1,1.5867388E1,4.8218346E1,3.184061E1,6.624598E1,3.9209076E1,5.426635E1,0E0,0E0,0E0,0E0,0E0,0E0,0E0,0E0],"parents":[2147483647,0,0,1,1,2,2,3,3,4,4,5,5,6,6],"right_children":[2,4,6,8,10,12,14,-1,-1,-1,-1,-1,-1,-1,-1],"split_conditions":[-2.199058E-1,9.88466E-1,-1.429229E0,-3.9188537E-1,9.912395E-1,-4.015746E-1,-1.4377565E0,-1.5823271E-2,8.439556E-3,-9.4176335E-3,-1.2191427E-1,-1.5327355E-1,6.867989E-2,1.7270534E-1,7.49E-3],"split_indices":[1,2,0,0,0,3,3,0,0,0,0,0,0,0,0],"split_type":[0,0,0,0,0,0,0,0,0,0,0,0,0,0,0],"sum_hessian":[1.596E3,6.72E2,9.24E2,5.84E2,8.8E1,9E0,9.15E2,3.73E2,2.11E2,7.3E1,1.5E1,7E0,2E0,4E0,9.11E2],"tree_param":{"num_deleted":"0","num_feature":"4","num_nodes":"15","size_leaf_vector":"1"}},{"base_weights":[-1.2405458E-3,-3.1627187E-1,8.295199E-2,-1.2822548E-1,-6.781682E-1,-2.0707633E0,1.1580609E-1,6.0208975E-3,-4.4495378E-2,6.4022206E-2,-5.0382268E-2,-1.3297307E-1,2.1314512E-1,-1.2154278E-2,8.959507E-3],"categories":[],"categories_nodes":[],"categories_segments":[],"categories_sizes":[],"default_left":[0,0,0,0,0,0,0,0,0,0,0,0,0,0,0],"id":64,"left_children":[1,3,5,7,9,11,13,-1,-1,-1,-1,-1,-1,-1,-1],"loss_changes":[4.2383926E1,2.2847E1,8.946611E1,4.234051E1,7.550181E1,8.2180756E1,2.831933E1,0E0,0E0,0E0,0E0,0E0,0E0,0E0,0E0],"parents":[2147483647,0,0,1,1,2,2,3,3,4,4,5,5,6,6],"right_children":[2,4,6,8,10,12,14,-1,-1,-1,-1,-1,-1,-1,-1],"split_conditions":[-9.1550016E-1,-7.376666E-1,-1.4377565E0,-7.399122E-1,-1.4377565E0,1.5077295E0,-7.376666E-1,6.0208975E-3,-4.4495378E-2,6.4022206E-2,-5.0382268E-2,-1.3297307E-1,2.1314512E-1,-1.2154278E-2,8.959507E-3],"split_indices":[2,0,3,1,3,2,0,0,0,0,0,0,0,0,0],"split_type":[0,0,0,0,0,0,0,0,0,0,0,0,0,0,0],"sum_hessian":[1.596E3,3.36E2,1.26E3,2.22E2,1.14E2,1.8E1,1.242E3,1.68E2,5.4E1,1.6E1,9.8E1,1.7E1,1E0,1.86E2,1.056E3],"tree_param":{"num_deleted":"0","num_feature":"4","num_nodes":"15","size_leaf_vector":"1"}},{"base_weights":[-1.146026E-3,-1.862435E-1,1.3352613E-1,-7.121219E-2,-3.7935904E-1,-1.9043164E0,1.5562755E-1,4.781214E-3,-4.569554E-2,-5.56355E-2,-2.4217635E-3,-1.442703E-1,6.733473E-2,1.6737653E-1,6.897872E-3],"categories":[],"categories_nodes":[],"categories_segments":[],"categories_sizes":[],"default_left":[0,0,0,0,0,0,0,0,0,0,0,0,0,0,0],"id":65,"left_children":[1,3,5,7,9,11,13,-1,-1,-1,-1,-1,-1,-1,-1],"loss_changes":[3.9834045E1,1.4923231E1,4.1957638E1,5.955817E1,6.0859615E1,3.5781082E1,5.1201763E1,0E0,0E0,0E0,0E0,0E0,0E0,0E0,0E0],"parents":[2147483647,0,0,1,1,2,2,3,3,4,4,5,5,6,6],"right_children":[2,4,6,8,10,12,14,-1,-1,-1,-1,-1,-1,-1,-1],"split_conditions":[-2.199058E-1,-7.399122E-1,-1.429229E0,1.2302685E-1,-5.693245E-1,-4.015746E-1,-1.4377565E0,4.781214E-3,-4.569554E-2,-5.56355E-2,-2.4217635E-3,-1.442703E-1,6.733473E-2,1.6737653E-1,6.897872E-3],"split_indices":[1,1,0,2,2,3,3,0,0,0,0,0,0,0,0],"split_type":[0,0,0,0,0,0,0,0,0,0,0,0,0,0,0],"sum_hessian":[1.596E3,6.72E2,9.24E2,4.22E2,2.5E2,9E0,9.15E2,3.53E2,6.9E1,7.7E1,1.73E2,7E0,2E0,4E0,9.11E2],"tree_param":{"num_deleted":"0","num_feature":"4","num_nodes":"15","size_leaf_vector":"1"}},{"base_weights":[-1.0898171E-3,-1.2546992E-1,1.9153248E-1,-1.6602731E-1,8.2265365E-1,-1.872356E-1,5.920261E-1,-3.9872094E-3,-3.2678682E-2,2.355326E-1,1.2990117E-2,-2.1689665E-3,-4.680569E-2,2.5641626E-2,8.4744655E-2],"categories":[],"categories_nodes":[],"categories_segments":[],"categories_sizes":[],"default_left":[0,0,0,0,0,0,0,0,0,0,0,0,0,0,0],"id":66,"left_children":[1,3,5,7,9,11,13,-1,-1,-1,-1,-1,-1,-1,-1],"loss_changes":[3.828557E1,3.747484E1,9.52231E1,3.9154343E1,8.631075E1,3.4756447E1,2.5769516E1,0E0,0E0,0E0,0E0,0E0,0E0,0E0,0E0],"parents":[2147483647,0,0,1,1,2,2,3,3,4,4,5,5,6,6],"right_children":[2,4,6,8,10,12,14,-1,-1,-1,-1,-1,-1,-1,-1],"split_conditions":[4.6920252E-1,1.682802E0,6.346074E-1,1.2302685E-1,-1.2650596E0,4.6191037E-1,1.6867844E0,-3.9872094E-3,-3.2678682E-2,2.355326E-1,1.2990117E-2,-2.1689665E-3,-4.680569E-2,2.5641626E-2,8.4744655E-2],"split_indices":[2,0,3,2,3,3,1,0,0,0,0,0,0,0,0],"split_type":[0,0,0,0,0,0,0,0,0,0,0,0,0,0,0],"sum_hessian":[1.596E3,9.7E2,6.26E2,9.31E2,3.9E1,3.22E2,3.04E2,7.92E2,1.39E2,4E0,3.5E1,2.71E2,5.1E1,2.85E2,1.9E1],"tree_param":{"num_deleted":"0","num_feature":"4","num_nodes":"15","size_leaf_vector":"1"}},{"base_weights":[-8.641709E-4,-2.9588544E-1,7.798042E-2,-1.1572175E-1,-6.4267343E-1,-1.9471198E0,1.0887256E-1,5.6821695E-3,-4.091971E-2,5.996704E-2,-4.7624364E-2,-1.2598835E-1,2.0901309E-1,-1.0952848E-2,8.339274E-3],"categories":[],"categories_nodes":[],"categories_segments":[],"categories_sizes":[],"default_left":[0,0,0,0,0,0,0,0,0,0,0,0,0,0,0],"id":67,"left_children":[1,3,5,7,9,11,13,-1,-1,-1,-1,-1,-1,-1,-1],"loss_changes":[3.7170624E1,2.0980917E1,7.909973E1,3.6033596E1,6.677073E1,7.720097E1,2.3642788E1,0E0,0E0,0E0,0E0,0E0,0E0,0E0,0E0],"parents":[2147483647,0,0,1,1,2,2,3,3,4,4,5,5,6,6],"right_children":[2,4,6,8,10,12,14,-1,-1,-1,-1,-1,-1,-1,-1],"split_conditions":[-9.1550016E-1,-7.376666E-1,-1.4377565E0,-7.399122E-1,-1.4377565E0,1.5077295E0,-7.376666E-1,5.6821695E-3,-4.091971E-2,5.996704E-2,-4.7624364E-2,-1.2598835E-1,2.0901309E-1,-1.0952848E-2,8.339274E-3],"split_indices":[2,0,3,1,3,2,0,0,0,0,0,0,0,0,0],"split_type":[0,0,0,0,0,0,0,0,0,0,0,0,0,0,0],"sum_hessian":[1.596E3,3.36E2,1.26E3,2.22E2,1.14E2,1.8E1,1.242E3,1.68E2,5.4E1,1.6E1,9.8E1,1.7E1,1E0,1.86E2,1.056E3],"tree_param":{"num_deleted":"0","num_feature":"4","num_nodes":"15","size_leaf_vector":"1"}},{"base_weights":[-7.847074E-4,-1.306061E-1,1.6365683E-1,-1.5969904E-1,6.0911554E-1,-1.6234838E0,2.1017554E-1,-5.20801E-3,-4.4924047E-2,-7.955919E-3,1.3803892E-1,-1.1056175E-1,-3.061952E-2,2.569138E-4,2.3845626E-2],"categories":[],"categories_nodes":[],"categories_segments":[],"categories_sizes":[],"default_left":[0,0,0,0,0,0,0,0,0,0,0,0,0,0,0],"id":68,"left_children":[1,3,5,7,9,11,13,-1,-1,-1,-1,-1,-1,-1,-1],"loss_changes":[3.4114174E1,1.9315243E1,5.895173E1,3.5193153E1,5.6640625E1,9.342743E0,3.7624973E1,0E0,0E0,0E0,0E0,0E0,0E0,0E0,0E0],"parents":[2147483647,0,0,1,1,2,2,3,3,4,4,5,5,6,6],"right_children":[2,4,6,8,10,12,14,-1,-1,-1,-1,-1,-1,-1,-1],"split_conditions":[2.8921336E-1,1.682802E0,-1.2563385E0,1.5134488E0,4.7343606E-1,1.6707894E0,8.153782E-1,-5.20801E-3,-4.4924047E-2,-7.955919E-3,1.3803892E-1,-1.1056175E-1,-3.061952E-2,2.569138E-4,2.3845626E-2],"split_indices":[3,0,0,1,1,3,2,0,0,0,0,0,0,0,0],"split_type":[0,0,0,0,0,0,0,0,0,0,0,0,0,0,0],"sum_hessian":[1.596E3,8.92E2,7.04E2,8.59E2,3.3E1,1.7E1,6.87E2,8E2,5.9E1,2.5E1,8E0,1E1,7E0,3.89E2,2.98E2],"tree_param":{"num_deleted":"0","num_feature":"4","num_nodes":"15","size_leaf_vector":"1"}},{"base_weights":[-7.6864864E-4,-2.7211285E-1,7.174821E-2,-9.98236E-2,-6.0383797E-1,-1.83837E0,1.0088779E-1,5.8004223E-3,-3.8060084E-2,5.739823E-2,-4.492766E-2,-1.1968263E-1,2.0391797E-1,5.9470266E-2,4.286212E-3],"categories":[],"categories_nodes":[],"categories_segments":[],"categories_sizes":[],"default_left":[0,0,0,0,0,0,0,0,0,0,0,0,0,0,0],"id":69,"left_children":[1,3,5,7,9,11,13,-1,-1,-1,-1,-1,-1,-1,-1],"loss_changes":[3.1443743E1,1.9200174E1,7.037277E1,3.192079E1,6.0404037E1,7.218586E1,2.0414743E1,0E0,0E0,0E0,0E0,0E0,0E0,0E0,0E0],"parents":[2147483647,0,0,1,1,2,2,3,3,4,4,5,5,6,6],"right_children":[2,4,6,8,10,12,14,-1,-1,-1,-1,-1,-1,-1,-1],"split_conditions":[-9.1550016E-1,-7.376666E-1,-1.4377565E0,-7.399122E-1,-1.4377565E0,1.5077295E0,-1.429229E0,5.8004223E-3,-3.8060084E-2,5.739823E-2,-4.492766E-2,-1.1968263E-1,2.0391797E-1,5.9470266E-2,4.286212E-3],"split_indices":[2,0,3,1,3,2,0,0,0,0,0,0,0,0,0],"split_type":[0,0,0,0,0,0,0,0,0,0,0,0,0,0,0],"sum_hessian":[1.596E3,3.36E2,1.26E3,2.22E2,1.14E2,1.8E1,1.242E3,1.68E2,5.4E1,1.6E1,9.8E1,1.7E1,1E0,1.6E1,1.226E3],"tree_param":{"num_deleted":"0","num_feature":"4","num_nodes":"15","size_leaf_vector":"1"}},{"base_weights":[-6.496867E-4,-1.6304106E-1,1.17501706E-1,-1.0570881E-1,-5.380559E-1,-1.7238165E0,1.3747515E-1,-1.3407828E-2,9.06861E-3,-1.3203275E-2,-1.6396002E-1,-1.3335939E-1,6.832229E-2,1.6194141E-1,6.016069E-3],"categories":[],"categories_nodes":[],"categories_segments":[],"categories_sizes":[],"default_left":[0,0,0,0,0,0,0,0,0,0,0,0,0,0,0],"id":70,"left_children":[1,3,5,7,9,11,13,-1,-1,-1,-1,-1,-1,-1,-1],"loss_changes":[3.0660421E1,1.441292E1,3.4256145E1,2.7330505E1,6.597728E1,3.279722E1,4.8341408E1,0E0,0E0,0E0,0E0,0E0,0E0,0E0,0E0],"parents":[2147483647,0,0,1,1,2,2,3,3,4,4,5,5,6,6],"right_children":[2,4,6,8,10,12,14,-1,-1,-1,-1,-1,-1,-1,-1],"split_conditions":[-2.199058E-1,9.88466E-1,-1.429229E0,-3.9188537E-1,1.3253953E0,-4.015746E-1,-1.4377565E0,-1.3407828E-2,9.06861E-3,-1.3203275E-2,-1.6396002E-1,-1.3335939E-1,6.832229E-2,1.6194141E-1,6.016069E-3],"split_indices":[1,2,0,0,3,3,3,0,0,0,0,0,0,0,0],"split_type":[0,0,0,0,0,0,0,0,0,0,0,0,0,0,0],"sum_hessian":[1.596E3,6.72E2,9.24E2,5.84E2,8.8E1,9E0,9.15E2,3.73E2,2.11E2,8.1E1,7E0,7E0,2E0,4E0,9.11E2],"tree_param":{"num_deleted":"0","num_feature":"4","num_nodes":"15","size_leaf_vector":"1"}},{"base_weights":[-6.6626124E-4,-1.1966405E-1,1.5006521E-1,-1.9459115E-2,-3.389718E-1,-1.5352918E0,1.9394074E-1,-4.725955E-3,4.897329E-2,-9.72089E-3,-4.8452333E-2,-1.0556401E-1,-2.7569816E-2,-1.4097531E-1,1.056272E-2],"categories":[],"categories_nodes":[],"categories_segments":[],"categories_sizes":[],"default_left":[0,0,0,0,0,0,0,0,0,0,0,0,0,0,0],"id":71,"left_children":[1,3,5,7,9,11,13,-1,-1,-1,-1,-1,-1,-1,-1],"loss_changes":[2.8662888E1,1.9617718E1,5.2429626E1,4.6129868E1,2.5313953E1,9.036663E0,3.6491173E1,0E0,0E0,0E0,0E0,0E0,0E0,0E0,0E0],"parents":[2147483647,0,0,1,1,2,2,3,3,4,4,5,5,6,6],"right_children":[2,4,6,8,10,12,14,-1,-1,-1,-1,-1,-1,-1,-1],"split_conditions":[2.8921336E-1,1.2302685E-1,-1.2563385E0,-5.0060995E-2,1.166778E0,1.6707894E0,-1.4332541E0,-4.725955E-3,4.897329E-2,-9.72089E-3,-4.8452333E-2,-1.0556401E-1,-2.7569816E-2,-1.4097531E-1,1.056272E-2],"split_indices":[3,2,0,2,1,3,1,0,0,0,0,0,0,0,0],"split_type":[0,0,0,0,0,0,0,0,0,0,0,0,0,0,0],"sum_hessian":[1.596E3,8.92E2,7.04E2,6.13E2,2.79E2,1.7E1,6.87E2,5.71E2,4.2E1,2.28E2,5.1E1,1E1,7E0,3E0,6.84E2],"tree_param":{"num_deleted":"0","num_feature":"4","num_nodes":"15","size_leaf_vector":"1"}},{"base_weights":[-8.067455E-4,-1.2551653E-1,1.3567226E-1,-4.6557374E-2,-6.6229886E-1,-1.7193721E-1,3.8464564E-1,-2.7312526E-2,3.5001896E-3,1.7976423E-1,-4.9814127E-2,2.093627E-3,-6.8257146E-2,7.5521246E-3,5.6766868E-2],"categories":[],"categories_nodes":[],"categories_segments":[],"categories_sizes":[],"default_left":[0,0,0,0,0,0,0,0,0,0,0,0,0,0,0],"id":72,"left_children":[1,3,5,7,9,11,13,-1,-1,-1,-1,-1,-1,-1,-1],"loss_changes":[2.7198395E1,3.5359707E1,5.8501686E1,4.249871E1,1.55732E2,8.730786E1,7.383209E1,0E0,0E0,0E0,0E0,0E0,0E0,0E0,0E0],"parents":[2147483647,0,0,1,1,2,2,3,3,4,4,5,5,6,6],"right_children":[2,4,6,8,10,12,14,-1,-1,-1,-1,-1,-1,-1,-1],"split_conditions":[1.2676513E-1,1.1641301E0,4.7256768E-1,-1.2650596E0,-1.4377565E0,1.3346417E0,1.3346417E0,-2.7312526E-2,3.5001896E-3,1.7976423E-1,-4.9814127E-2,2.093627E-3,-6.8257146E-2,7.5521246E-3,5.6766868E-2],"split_indices":[1,0,0,3,3,2,2,0,0,0,0,0,0,0,0],"split_type":[0,0,0,0,0,0,0,0,0,0,0,0,0,0,0],"sum_hessian":[1.596E3,8.34E2,7.62E2,7.28E2,1.06E2,3.41E2,4.21E2,1.37E2,5.91E2,7E0,9.9E1,2.9E2,5.1E1,3.22E2,9.9E1],"tree_param":{"num_deleted":"0","num_feature":"4","num_nodes":"15","size_leaf_vector":"1"}},{"base_weights":[-7.0095586E-4,-8.094294E-2,1.9841957E-1,5.8591147E-3,-5.970275E-1,-1.525289E-1,7.741256E-1,-2.5647635E-2,4.7040586E-3,-1.8912707E-2,-1.4570047E-1,1.7189954E-1,-1.2746808E-2,-1.0117382E-1,4.3443404E-2],"categories":[],"categories_nodes":[],"categories_segments":[],"categories_sizes":[],"default_left":[0,0,0,0,0,0,0,0,0,0,0,0,0,0,0],"id":73,"left_children":[1,3,5,7,9,11,13,-1,-1,-1,-1,-1,-1,-1,-1],"loss_changes":[2.553265E1,5.1027504E1,9.285588E1,4.4720406E1,8.2028366E1,1.0603732E2,4.787716E1,0E0,0E0,0E0,0E0,0E0,0E0,0E0,0E0],"parents":[2147483647,0,0,1,1,2,2,3,3,4,4,5,5,6,6],"right_children":[2,4,6,8,10,12,14,-1,-1,-1,-1,-1,-1,-1,-1],"split_conditions":[8.183489E-1,1.166778E0,9.934425E-1,-1.2650596E0,1.5077295E0,-1.4377565E0,-9.1550016E-1,-2.5647635E-2,4.7040586E-3,-1.8912707E-2,-1.4570047E-1,1.7189954E-1,-1.2746808E-2,-1.0117382E-1,4.3443404E-2],"split_indices":[0,1,1,3,2,3,2,0,0,0,0,0,0,0,0],"split_type":[0,0,0,0,0,0,0,0,0,0,0,0,0,0,0],"sum_hessian":[1.596E3,1.138E3,4.58E2,9.75E2,1.63E2,2.85E2,1.73E2,1.41E2,8.34E2,1.5E2,1.3E1,7E0,2.78E2,5E0,1.68E2],"tree_param":{"num_deleted":"0","num_feature":"4","num_nodes":"15","size_leaf_vector":"1"}},{"base_weights":[-7.1876065E-4,-1.1753228E-1,1.2711874E-1,-4.2531375E-2,-6.274213E-1,-1.546563E-1,3.551755E-1,-1.0879096E-2,1.3239662E-2,1.6437894E-1,-4.6717357E-2,2.23952E-3,-6.3390836E-2,6.7788297E-3,5.3046405E-2],"categories":[],"categories_nodes":[],"categories_segments":[],"categories_sizes":[],"default_left":[0,0,0,0,0,0,0,0,0,0,0,0,0,0,0],"id":74,"left_children":[1,3,5,7,9,11,13,-1,-1,-1,-1,-1,-1,-1,-1],"loss_changes":[2.3863176E1,3.1905502E1,4.9085842E1,3.927587E1,1.3164449E2,7.598632E1,6.525878E1,0E0,0E0,0E0,0E0,0E0,0E0,0E0,0E0],"parents":[2147483647,0,0,1,1,2,2,3,3,4,4,5,5,6,6],"right_children":[2,4,6,8,10,12,14,-1,-1,-1,-1,-1,-1,-1,-1],"split_conditions":[1.2676513E-1,1.1641301E0,4.7256768E-1,-3.9188537E-1,-1.4377565E0,1.3346417E0,1.3346417E0,-1.0879096E-2,1.3239662E-2,1.6437894E-1,-4.6717357E-2,2.23952E-3,-6.3390836E-2,6.7788297E-3,5.3046405E-2],"split_indices":[1,0,0,0,3,2,2,0,0,0,0,0,0,0,0],"split_type":[0,0,0,0,0,0,0,0,0,0,0,0,0,0,0],"sum_hessian":[1.596E3,8.34E2,7.62E2,7.28E2,1.06E2,3.41E2,4.21E2,4.64E2,2.64E2,7E0,9.9E1,2.9E2,5.1E1,3.22E2,9.9E1],"tree_param":{"num_deleted":"0","num_feature":"4","num_nodes":"15","size_leaf_vector":"1"}},{"base_weights":[-6.084505E-4,-5.0371206E-1,2.7305229E-2,-7.369546E-1,1.8042119E0,-5.75328E-2,1.8401289E-1,-2.0868301E-2,-1.3082719E-1,2.3065034E-1,-4.0183313E-2,4.770193E-3,-1.4033824E-2,-7.227278E-3,3.1647753E-2],"categories":[],"categories_nodes":[],"categories_segments":[],"categories_sizes":[],"default_left":[0,0,0,0,0,0,0,0,0,0,0,0,0,0,0],"id":75,"left_children":[1,3,5,7,9,11,13,-1,-1,-1,-1,-1,-1,-1,-1],"loss_changes":[2.244118E1,4.6547337E1,2.0138866E1,4.5161484E1,6.2307274E1,3.357347E1,7.856348E1,0E0,0E0,0E0,0E0,0E0,0E0,0E0,0E0],"parents":[2147483647,0,0,1,1,2,2,3,3,4,4,5,5,6,6],"right_children":[2,4,6,8,10,12,14,-1,-1,-1,-1,-1,-1,-1,-1],"split_conditions":[-1.4347637E0,1.2678644E-1,6.346074E-1,-7.376666E-1,-1.4377565E0,1.2302685E-1,8.153782E-1,-2.0868301E-2,-1.3082719E-1,2.3065034E-1,-4.0183313E-2,4.770193E-3,-1.4033824E-2,-7.227278E-3,3.1647753E-2],"split_indices":[2,0,3,0,3,2,2,0,0,0,0,0,0,0,0],"split_type":[0,0,0,0,0,0,0,0,0,0,0,0,0,0,0],"sum_hessian":[1.596E3,8.3E1,1.513E3,7.6E1,7E0,9.82E2,5.31E2,6.6E1,1E1,3E0,4E0,5.83E2,3.99E2,3.07E2,2.24E2],"tree_param":{"num_deleted":"0","num_feature":"4","num_nodes":"15","size_leaf_vector":"1"}},{"base_weights":[-5.44242E-4,-2.2531566E-1,5.952595E-2,-4.641342E-2,-5.702712E-1,-1.7027239E0,8.6415105E-2,8.229996E-3,-3.4697797E-2,4.6042982E-2,-4.1028183E-2,-1.1223709E-1,2.0133996E-1,5.862955E-2,3.5647892E-3],"categories":[],"categories_nodes":[],"categories_segments":[],"categories_sizes":[],"default_left":[0,0,0,0,0,0,0,0,0,0,0,0,0,0,0],"id":76,"left_children":[1,3,5,7,9,11,13,-1,-1,-1,-1,-1,-1,-1,-1],"loss_changes":[2.1576206E1,2.077092E1,5.9900143E1,3.0584969E1,4.3675785E1,6.80437E1,2.0329245E1,0E0,0E0,0E0,0E0,0E0,0E0,0E0,0E0],"parents":[2147483647,0,0,1,1,2,2,3,3,4,4,5,5,6,6],"right_children":[2,4,6,8,10,12,14,-1,-1,-1,-1,-1,-1,-1,-1],"split_conditions":[-9.1550016E-1,-7.376666E-1,-1.4377565E0,-7.399122E-1,-1.4377565E0,1.5077295E0,-1.429229E0,8.229996E-3,-3.4697797E-2,4.6042982E-2,-4.1028183E-2,-1.1223709E-1,2.0133996E-1,5.862955E-2,3.5647892E-3],"split_indices":[2,0,3,1,3,2,0,0,0,0,0,0,0,0,0],"split_type":[0,0,0,0,0,0,0,0,0,0,0,0,0,0,0],"sum_hessian":[1.596E3,3.36E2,1.26E3,2.22E2,1.14E2,1.8E1,1.242E3,1.68E2,5.4E1,1.6E1,9.8E1,1.7E1,1E0,1.6E1,1.226E3],"tree_param":{"num_deleted":"0","num_feature":"4","num_nodes":"15","size_leaf_vector":"1"}},{"base_weights":[-4.3577678E-4,-9.1019675E-2,1.3984716E-1,-1.2970577E-1,8.12642E-1,-1.709905E-1,4.685708E-1,-2.0645899E-3,-3.1479068E-2,2.1923633E-1,1.4697286E-2,-1.1539989E-3,-4.70694E-2,2.6803544E-2,-3.187309E-2],"categories":[],"categories_nodes":[],"categories_segments":[],"categories_sizes":[],"default_left":[0,0,0,0,0,0,0,0,0,0,0,0,0,0,0],"id":77,"left_children":[1,3,5,7,9,11,13,-1,-1,-1,-1,-1,-1,-1,-1],"loss_changes":[2.0306406E1,3.405074E1,6.414679E1,4.1164658E1,7.282421E1,3.6784084E1,2.3112175E1,0E0,0E0,0E0,0E0,0E0,0E0,0E0,0E0],"parents":[2147483647,0,0,1,1,2,2,3,3,4,4,5,5,6,6],"right_children":[2,4,6,8,10,12,14,-1,-1,-1,-1,-1,-1,-1,-1],"split_conditions":[4.6920252E-1,1.682802E0,6.346074E-1,1.2302685E-1,-1.2650596E0,4.6191037E-1,1.682802E0,-2.0645899E-3,-3.1479068E-2,2.1923633E-1,1.4697286E-2,-1.1539989E-3,-4.70694E-2,2.6803544E-2,-3.187309E-2],"split_indices":[2,0,3,2,3,3,0,0,0,0,0,0,0,0,0],"split_type":[0,0,0,0,0,0,0,0,0,0,0,0,0,0,0],"sum_hessian":[1.596E3,9.7E2,6.26E2,9.31E2,3.9E1,3.22E2,3.04E2,7.92E2,1.39E2,4E0,3.5E1,2.71E2,5.1E1,2.87E2,1.7E1],"tree_param":{"num_deleted":"0","num_feature":"4","num_nodes":"15","size_leaf_vector":"1"}},{"base_weights":[-3.219209E-4,-4.78642E-1,2.6216526E-2,-7.0013994E-1,1.7131063E0,-8.217792E-2,1.3443339E-1,-1.902248E-2,-1.20004594E-1,2.1758547E-1,-3.701988E-2,9.4296056E-4,-3.6930293E-2,-5.4257507E-3,1.6406408E-2],"categories":[],"categories_nodes":[],"categories_segments":[],"categories_sizes":[],"default_left":[0,0,0,0,0,0,0,0,0,0,0,0,0,0,0],"id":78,"left_children":[1,3,5,7,9,11,13,-1,-1,-1,-1,-1,-1,-1,-1],"loss_changes":[2.0284658E1,4.197871E1,1.777043E1,4.093317E1,5.5012585E1,5.0220894E1,3.5705437E1,0E0,0E0,0E0,0E0,0E0,0E0,0E0,0E0],"parents":[2147483647,0,0,1,1,2,2,3,3,4,4,5,5,6,6],"right_children":[2,4,6,8,10,12,14,-1,-1,-1,-1,-1,-1,-1,-1],"split_conditions":[-1.4347637E0,1.2678644E-1,1.2676513E-1,-7.399122E-1,-1.4377565E0,1.1641301E0,4.7256768E-1,-1.902248E-2,-1.20004594E-1,2.1758547E-1,-3.701988E-2,9.4296056E-4,-3.6930293E-2,-5.4257507E-3,1.6406408E-2],"split_indices":[2,0,1,1,3,0,0,0,0,0,0,0,0,0,0],"split_type":[0,0,0,0,0,0,0,0,0,0,0,0,0,0,0],"sum_hessian":[1.596E3,8.3E1,1.513E3,7.6E1,7E0,7.56E2,7.57E2,6.5E1,1.1E1,3E0,4E0,6.56E2,1E2,3.36E2,4.21E2],"tree_param":{"num_deleted":"0","num_feature":"4","num_nodes":"15","size_leaf_vector":"1"}},{"base_weights":[-2.9552318E-4,-1.8187279E-1,6.486256E-2,-1.2683246E-1,-1.0153012E0,-1.0631013E0,8.232458E-2,-1.0963527E-2,6.287085E-2,9.7227E-2,-1.21940814E-1,-9.893208E-2,5.488765E-2,5.7086837E-3,-1.9309742E-2],"categories":[],"categories_nodes":[],"categories_segments":[],"categories_sizes":[],"default_left":[0,0,0,0,0,0,0,0,0,0,0,0,0,0,0],"id":79,"left_children":[1,3,5,7,9,11,13,-1,-1,-1,-1,-1,-1,-1,-1],"loss_changes":[1.8906265E1,1.922929E1,2.325064E1,5.1074783E1,1.1429022E2,3.778235E1,1.7338593E1,0E0,0E0,0E0,0E0,0E0,0E0,0E0,0E0],"parents":[2147483647,0,0,1,1,2,2,3,3,4,4,5,5,6,6],"right_children":[2,4,6,8,10,12,14,-1,-1,-1,-1,-1,-1,-1,-1],"split_conditions":[-7.469686E-1,1.5099113E0,-1.429229E0,9.912395E-1,-1.2650596E0,-1.088588E0,1.6707894E0,-1.0963527E-2,6.287085E-2,9.7227E-2,-1.21940814E-1,-9.893208E-2,5.488765E-2,5.7086837E-3,-1.9309742E-2],"split_indices":[3,0,0,0,3,2,3,0,0,0,0,0,0,0,0],"split_type":[0,0,0,0,0,0,0,0,0,0,0,0,0,0,0],"sum_hessian":[1.596E3,4.21E2,1.175E3,3.96E2,2.5E1,1.7E1,1.158E3,3.72E2,2.4E1,8E0,1.7E1,1.2E1,5E0,1.085E3,7.3E1],"tree_param":{"num_deleted":"0","num_feature":"4","num_nodes":"15","size_leaf_vector":"1"}},{"base_weights":[-2.998389E-4,-6.695072E-2,1.6509375E-1,1.5606022E-2,-5.578558E-1,-1.7208132E-1,6.4336836E-1,-2.2112157E-2,4.6724556E-3,-1.7609708E-2,-1.3681082E-1,1.4398603E-1,-1.32128745E-2,5.3808796E-3,5.572E-2],"categories":[],"categories_nodes":[],"categories_segments":[],"categories_sizes":[],"default_left":[0,0,0,0,0,0,0,0,0,0,0,0,0,0,0],"id":80,"left_children":[1,3,5,7,9,11,13,-1,-1,-1,-1,-1,-1,-1,-1],"loss_changes":[1.7615788E1,4.6169556E1,7.41301E1,3.4826347E1,7.250917E1,7.671292E1,4.782762E1,0E0,0E0,0E0,0E0,0E0,0E0,0E0,0E0],"parents":[2147483647,0,0,1,1,2,2,3,3,4,4,5,5,6,6],"right_children":[2,4,6,8,10,12,14,-1,-1,-1,-1,-1,-1,-1,-1],"split_conditions":[8.183489E-1,1.166778E0,8.073043E-1,-1.2650596E0,1.5077295E0,-1.4377565E0,8.153782E-1,-2.2112157E-2,4.6724556E-3,-1.7609708E-2,-1.3681082E-1,1.4398603E-1,-1.32128745E-2,5.3808796E-3,5.572E-2],"split_indices":[0,1,3,3,2,3,2,0,0,0,0,0,0,0,0],"split_type":[0,0,0,0,0,0,0,0,0,0,0,0,0,0,0],"sum_hessian":[1.596E3,1.138E3,4.58E2,9.75E2,1.63E2,2.69E2,1.89E2,1.41E2,8.34E2,1.5E2,1.3E1,7E0,2.62E2,8.9E1,1E2],"tree_param":{"num_deleted":"0","num_feature":"4","num_nodes":"15","size_leaf_vector":"1"}},{"base_weights":[-2.7217699E-4,-9.936356E-2,1.0817025E-1,-2.7894102E-2,-5.853623E-1,-1.3130888E-1,3.0199417E-1,-9.447297E-3,1.2740578E-2,1.3768665E-1,-4.2331815E-2,2.870434E-3,-5.924381E-2,5.113307E-3,4.720479E-2],"categories":[],"categories_nodes":[],"categories_segments":[],"categories_sizes":[],"default_left":[0,0,0,0,0,0,0,0,0,0,0,0,0,0,0],"id":81,"left_children":[1,3,5,7,9,11,13,-1,-1,-1,-1,-1,-1,-1,-1],"loss_changes":[1.7171646E1,2.8986618E1,3.5455666E1,3.3239708E1,9.568021E1,6.806674E1,5.402314E1,0E0,0E0,0E0,0E0,0E0,0E0,0E0,0E0],"parents":[2147483647,0,0,1,1,2,2,3,3,4,4,5,5,6,6],"right_children":[2,4,6,8,10,12,14,-1,-1,-1,-1,-1,-1,-1,-1],"split_conditions":[1.2676513E-1,1.1641301E0,4.7256768E-1,-3.9188537E-1,-1.4377565E0,1.3346417E0,1.3346417E0,-9.447297E-3,1.2740578E-2,1.3768665E-1,-4.2331815E-2,2.870434E-3,-5.924381E-2,5.113307E-3,4.720479E-2],"split_indices":[1,0,0,0,3,2,2,0,0,0,0,0,0,0,0],"split_type":[0,0,0,0,0,0,0,0,0,0,0,0,0,0,0],"sum_hessian":[1.596E3,8.34E2,7.62E2,7.28E2,1.06E2,3.41E2,4.21E2,4.64E2,2.64E2,7E0,9.9E1,2.9E2,5.1E1,3.22E2,9.9E1],"tree_param":{"num_deleted":"0","num_feature":"4","num_nodes":"15","size_leaf_vector":"1"}},{"base_weights":[-1.9941587E-4,-4.344926E-1,2.3896242E-2,-6.312383E-1,1.5134962E0,-7.204957E-2,1.1968395E-1,-1.6335474E-2,-1.21435516E-1,1.9607618E-1,-3.5781246E-2,9.988499E-4,-3.3498224E-2,3.5357047E-2,2.0734996E-3],"categories":[],"categories_nodes":[],"categories_segments":[],"categories_sizes":[],"default_left":[0,0,0,0,0,0,0,0,0,0,0,0,0,0,0],"id":82,"left_children":[1,3,5,7,9,11,13,-1,-1,-1,-1,-1,-1,-1,-1],"loss_changes":[1.6722317E1,3.314908E1,1.39229355E1,4.1354927E1,4.5748615E1,4.1666595E1,3.479876E1,0E0,0E0,0E0,0E0,0E0,0E0,0E0,0E0],"parents":[2147483647,0,0,1,1,2,2,3,3,4,4,5,5,6,6],"right_children":[2,4,6,8,10,12,14,-1,-1,-1,-1,-1,-1,-1,-1],"split_conditions":[-1.4347637E0,1.2678644E-1,1.2676513E-1,-7.376666E-1,-1.4377565E0,1.1641301E0,-5.693245E-1,-1.6335474E-2,-1.21435516E-1,1.9607618E-1,-3.5781246E-2,9.988499E-4,-3.3498224E-2,3.5357047E-2,2.0734996E-3],"split_indices":[2,0,1,0,3,0,2,0,0,0,0,0,0,0,0],"split_type":[0,0,0,0,0,0,0,0,0,0,0,0,0,0,0],"sum_hessian":[1.596E3,8.3E1,1.513E3,7.6E1,7E0,7.56E2,7.57E2,6.6E1,1E1,3E0,4E0,6.56E2,1E2,8.8E1,6.69E2],"tree_param":{"num_deleted":"0","num_feature":"4","num_nodes":"15","size_leaf_vector":"1"}},{"base_weights":[-1.7214986E-4,-6.304895E-2,1.5585585E-1,1.6912932E-2,-5.3853524E-1,-1.3975745E-1,6.408533E-1,-4.336794E-3,1.59128E-2,-3.211331E-3,-6.7979984E-2,1.997865E-2,-2.896062E-2,-9.6553415E-2,3.6418602E-2],"categories":[],"categories_nodes":[],"categories_segments":[],"categories_sizes":[],"default_left":[0,0,0,0,0,0,0,0,0,0,0,0,0,0,0],"id":83,"left_children":[1,3,5,7,9,11,13,-1,-1,-1,-1,-1,-1,-1,-1],"loss_changes":[1.5677261E1,4.3314774E1,6.589717E1,3.051184E1,6.37805E1,6.801669E1,4.057245E1,0E0,0E0,0E0,0E0,0E0,0E0,0E0,0E0],"parents":[2147483647,0,0,1,1,2,2,3,3,4,4,5,5,6,6],"right_children":[2,4,6,8,10,12,14,-1,-1,-1,-1,-1,-1,-1,-1],"split_conditions":[8.183489E-1,1.166778E0,9.934425E-1,1.2678644E-1,1.2678644E-1,1.3370208E0,-9.1550016E-1,-4.336794E-3,1.59128E-2,-3.211331E-3,-6.7979984E-2,1.997865E-2,-2.896062E-2,-9.6553415E-2,3.6418602E-2],"split_indices":[0,1,1,0,0,0,2,0,0,0,0,0,0,0,0],"split_type":[0,0,0,0,0,0,0,0,0,0,0,0,0,0,0],"sum_hessian":[1.596E3,1.138E3,4.58E2,9.75E2,1.63E2,2.85E2,1.73E2,7.26E2,2.49E2,1.04E2,5.9E1,1.28E2,1.57E2,5E0,1.68E2],"tree_param":{"num_deleted":"0","num_feature":"4","num_nodes":"15","size_leaf_vector":"1"}},{"base_weights":[-2.443071E-4,-4.014241E-1,2.285489E-2,-5.698761E-1,1.9676567E0,-9.5876105E-2,9.73407E-2,-2.1996679E-2,-1.0712462E-1,-1.7944309E-1,1.8983665E-1,1.1470002E-3,-2.2421956E-2,-1.3183402E-3,1.4871891E-2],"categories":[],"categories_nodes":[],"categories_segments":[],"categories_sizes":[],"default_left":[0,0,0,0,0,0,0,0,0,0,0,0,0,0,0],"id":84,"left_children":[1,3,5,7,9,11,13,-1,-1,-1,-1,-1,-1,-1,-1],